[[-0.33651328097205624, 0.059284818846443994, -0.011728237912613482, -0.23047078971221505, 0.016772143280243297, -0.2758174387408268, -0.1426555083359939, 0.25170038975519954, 0.0497452323668827, 0.09168492350347408, -0.06466828341024045, 0.16898707765851223, -0.2034816324748782, 0.008813134333715252, 0.11488002317571842, 0.01080243151479935, 0.19169613773475, 0.17266238317751725, -0.2248225362430785, -0.13836320972337826, -0.1518453711085743, 0.12570116427436764, 0.006188019471079059, 0.3481351698513295, 0.36536731767477254, -0.07119859111628213, 0.17185647257675968, 0.022885627156273482, 0.06307276902670048, -0.06377354763328469, -0.02582867036801443, -0.272472110833156, -0.050179677764384846, -0.063700375838124, 0.15412189586031314, 0.22662592021464775, 0.2047069380067276, -0.12544763524659874, -0.16926197425197467, 0.02462587301409277, 0.08767051280068414, 0.011661409837138417, 0.03100375147633512, -0.26604214829035555, 0.28273051900101653, 0.024723345313951102, -0.1337969924886798, 0.19336593995689264, -0.013843420147151366, 0.1805318599698153, 0.17028444123853415, -0.09279445374208298, -0.06219414007993599, 0.14531567054840472, -0.059408434699976906, -0.3001212983925904, -0.22365099375698294, 0.03664645075113772, 0.12263586287500261, 0.11674487912917868, 0.10137865125981223, 0.2782685977052507, 0.11452981674762516, 0.0401971059904587, 0.13500086585326357, 0.07426735983412382, 0.25231062405759624, 0.14112359838812788, 0.1519548814559471, 0.19967860255741832, 0.10183173938242641, -0.09986711925420576, 0.015092968650435794, 0.0073118839814090945, 0.004213131738227122, -0.06372406104575064, 0.13324019746991045, -0.17711038697659828, 0.08561843354995938, -0.06668120224304332, 0.2062764325922495, 0.0502664950050328, -0.3051784950583721, 0.06500762714337972, 0.20486584008982717, 0.11056284997773932, -0.0401279456937575, 0.027182755018228064, 0.21798825786751905, -0.15820294866036488, -0.08394045014557523, 0.13481125182553017, -0.09650147922139514, -0.005304387727092919, 0.27359185795900265, -0.030173611275240365, 0.17884034774243876, -0.27313257829063964, 0.09734847751161371, -0.024869429233877978], [0.07949079146086503, 0.08599833363484723, -0.03493271369640736, -0.17657409488256545, -0.11817097561204368, 0.048435883284571254, 0.04861091107799532, 0.02652646765707532, 0.06268049260784074, 0.20524844792792926, 0.2656722951677, -0.0551937451183018, 0.0336705376572104, -0.020235869093573694, 0.17555995952182896, 0.08243083530209155, -0.327408981743662, 0.1456182685999988, 0.08660502938193596, -0.03185994769545349, -0.0673184914999768, 0.04164691286434227, -0.0788824682919065, 0.16685744785013515, 0.055348786895411256, -0.04005176545493913, 0.2541737662231951, 0.22987755801111528, 0.005703606218181227, -0.021804275540218594, -0.07932384326096334, -0.156917147937525, 0.12281444472501186, 0.0008108144161902541, 0.0636747062380895, -0.03552245834264304, -0.10192801753637354, -0.09092196479295589, -0.41111866779213213, -0.054525385950360356, -0.11852419118148597, -0.2660321418620933, 0.05660457723161542, -0.056959658741502314, 0.05482267207321388, 0.06675165015424786, 0.07520550539819816, 0.02405403348294686, -0.050402503135185836, -0.033887612057471296, 0.05157407357530449, -0.04995693780914705, -0.25216601862395466, 0.01556316899605736, -0.04136595954263686, -0.16852750709599196, 0.12341017278928779, 0.0011267934006940908, -0.03050968746565826, -0.014999863234283858, 0.1227371742679868, -0.16467041933591764, 0.009443463101223081, 0.211283260782088, -0.039896687794303505, 0.012302969242449398, 0.2063067922330671, -0.05120867587430283, 0.007268000773970388, -0.31883737311999066, 0.15528725253684822, 0.10785999003913738, -0.044042666420173016, -0.23905322546700541, 0.09285672399682089, -0.007958407878162531, -0.05167196954008581, -0.03065475939919307, -0.16990012773880966, 0.18118072693037926, 0.18295440996554546, 0.1816928593146805, -0.07854280901279975, 0.18932239065142778, 0.025708756681064912, 0.14983732036344555, -0.28830292738033575, 0.33255313945144405, 0.036705757842141876, -0.2182928361819945, 0.04279408710134326, -0.005829181133836554, 0.04583440573709159, 0.08065396192739789, 0.1204247082237911, 0.16929173459823735, 0.09524482902508004, -0.026019299658926534, -0.04510101990414864, 0.07209428046325594], [0.002952480032183395, 0.5623311387992551, 0.3853239116173242, -0.16483232070024603, -0.04562771832216122, 0.0237598298297302, -0.1381751107652881, 0.012220323534206875, -2.5731707319523317e-105, 0.03061116975903969, -0.06431868080252193, -0.2507098351529745, -0.10063203515412612, 0.011465410538629841, 0.3538294927339924, 0.07928153414194758, 0.4334011865711683, 0.142363193222273, -0.1971211745456304, 0.0596607794468604, -0.03484807280485428, -0.09450976600077148, -0.09814179244924807, 0.3394713264747551, -0.25832474819895895, 0.3431695441275192, -0.19546311568770475, 0.03760786641380358, -0.13699619033566804, -0.002414423633207914, 0.04681791569232151, 0.4845847179886191, -0.10402832103051533, -0.2055665516442515, 0.25427878955563155, -0.11566432025125083, 0.6797774754113435, -0.07582110207700282, -0.06781458155489752, -0.0869646325656553, 0.09822153954857105, -0.025415871339582778, -0.11120104683855392, 0.03516548028247186, -0.22843039769658552, 0.3897676840083553, 0.07839359122409359, 0.2452802508810467, 0.3168733114523623, 0.08740410762707858, 0.2262942103699541, -2.188804043364122e-91, 0.20867961262624843, 0.3054560580226159, 0.30448571373378597, -2.3252158875398374e-100, 0.41784551636276535, -0.028107645184388286, 0.30629337144195934, 0.03535174483783816, 0.20018480519291712, 0.1804365756964689, 0.029702676623004274, 0.22773550320453181, 0.16930145417089942, 0.0019049641673387786, 0.16807870896367355, 0.12381009685715513, 0.15405222873292201, 0.12761063048296853, 0.49958148591716367, 0.05584210322361127, -0.025052963038547482, -0.03878191548835855, -0.1448447351810161, -0.048503000166690464, -0.14449563348375977, -0.06638638839763955, -0.20601832339330015, -0.06473041811104338, 0.44085588409274107, 0.23330469243237661, -0.10946569383642432, -0.07933644985246491, 0.2666836939021168, 0.1838618997111528, -4.635906639652312e-102, -0.4039503189270206, -0.24472083841975642, -0.09999434465338412, 0.315516335137959, 0.1908342124092307, 0.1729412389687517, 0.21433796533595478, -0.19870774061868848, 0.1239352859932749, 0.2848326443123764, -0.04062979836044393, 0.36790875774349235, 0.04955653144825444], [-0.24496949463813816, 0.1220128006122897, -0.133659441688621, 0.025483702541037583, -0.12393562719090191, 0.21740020155406004, 0.24454287667170563, -0.1040150645268147, 0.15294497102096785, -0.06479175924076797, -0.1308671672474614, 0.33131650407268415, 0.587936803872904, -0.08814409677611858, -0.20471604748012204, -0.10508152498464257, 0.044597429304331415, -0.16378508484893128, -0.25400721066956533, -0.06845062775520637, 0.34798908628710445, 0.11089274774397137, 0.1883429053071008, -0.17201585977164216, -0.1652979578988321, 0.014619296728404122, 0.003516071941643643, -0.22498629162131947, -0.09684942821544265, -0.13158753305549176, -0.26622039130941577, -0.20950966509832133, 0.08487446607560753, 0.112620749129611, 0.309436222628902, 0.1859259029512491, -0.1653593666255832, 0.2327743461374399, 0.11112257518408362, 0.39440495710444706, -0.13613108452253733, -0.1730718668707438, 0.02377154291311415, 0.10542120914567378, -0.1529405282450474, -0.11956223883784084, -0.2507437516499879, -0.1096535958058573, 0.0602458455994615, -0.08520916492748266, 0.063371972824164, -0.1935598281704499, -0.1517533149385098, -0.03264442521055641, -0.1795276513238863, -0.10631849312934837, 0.12941355111551642, -0.05004882836372838, 0.16255153171261566, 0.25730782976688493, 0.04043302267382439, 0.06282104505968727, -0.06424973080293585, 0.08036774134820998, 0.1307886170054281, 0.012901842193003001, -0.22505815527236886, 0.15234060331622915, 0.09337895790372117, -0.004002990341702064, -0.2881006780525217, 0.04686075210463038, 0.1798194116346079, 0.1488246183929073, 0.3539206107179632, 0.27704148808435014, 0.16064613111625403, 0.26722890637972085, -0.11900237384043767, 0.27710259777975754, 0.273148056232221, 0.13107102020825076, 0.39533465465548917, 0.11694880414632106, 0.02934403191242184, 0.11988570808159371, -0.013453104726136055, 0.4276958106519994, -0.005520876273834435, 0.15114994594799389, -0.022892018053142074, 0.2557064998451508, 0.023385716503944227, -0.37494566878863395, 0.19975297581753804, 0.2591610005589223, -0.26837135057330197, 0.2516932566824917, -0.05995311573045042, -0.11095313899020513], [0.10249573852782974, 0.10491335156407482, 0.01763405854928337, 0.19530057048724395, -0.03631391029718977, 0.014064147231951556, 0.15995015824504522, -0.08530666160862518, -4.717015002095333e-105, 0.2861390635582006, 0.03863013110067325, 0.19621955605037777, 0.4087038418655434, -0.0849345193673734, 0.016720382889133033, -0.11060537262750178, 0.09158509650470464, -0.15885196632600593, -0.0595938497000725, -0.09067063768990682, 0.37312792249465593, 0.31432666745071025, 0.18984177342388717, -0.029737348376662125, -0.005286146156168988, -0.062311139626278995, -0.005078653622056817, 6.543829640044868e-104, -0.1342401496718721, -0.12550335234354035, -0.17101372095091527, -0.11311212465571352, 0.30872401969571733, 0.2327004710991556, 0.3481748588744396, -0.0008093217997727858, -0.05219296623846506, 0.4397561313013347, -0.05830435701410144, 0.13193602756717154, -0.12895827842022578, -0.01723558058787976, 0.26046957052756436, 0.26683603943989026, -0.006390665051714789, 0.003387194935757667, -0.008984121665885428, 0.09615780024696517, -0.07648516116743653, -0.025619693331037523, 0.20220650133015639, -0.026780815393087676, -0.19307329804326456, -0.2467675572794445, 0.04889883197330946, -0.07970578709660804, 0.3064070642049767, -4.152384144267457e-100, 0.03982812170471195, 0.28136576153940757, 0.3209108432708455, 0.031087577857893695, -0.12728922673304718, 0.06638351770996535, -0.04378598716467646, 0.22577564269250033, -0.16880458178529528, -0.1311131263211098, 0.19777940685734355, 1.018450241213889e-103, 7.03488272095459e-103, -0.1221260441040985, 0.38685299204522766, -0.04082964285983722, 0.2674841631949792, -0.17051489246049903, -0.13603722917308075, 0.3321853241275538, -0.17999386145667923, 0.298082643869009, 0.3859714359476754, 0.32997907470590593, 0.526907606483916, -0.023105031681946574, 0.054481065639297895, 0.3363059282419718, 3.4726363620446765e-101, 0.3872866772241321, -0.007923829848978655, 0.16180327612294348, -0.1803036039198553, 0.2457533105968503, -0.20801293597670376, -0.07958802910529977, 0.028377086171902776, 0.14773224902966736, -0.12458130796554771, -0.1674445988442994, -0.004658040879731204, 0.053758421825186364], [0.20372742291788629, 0.09703349074676286, -0.30648713366971664, 0.05559404887287343, -0.11130976397618109, 0.08800380455041999, 0.03892888292763295, -0.07838261869521235, -0.022913332875225328, 0.11037110709066758, 0.13929880750347262, -0.20689232032026778, 0.2881380765663667, -0.001054847195784329, -0.06013301907970647, 0.18123008692979306, 0.11581612618496541, -0.15020561024449536, -0.028770228587632084, -0.13983843726881487, -0.02030530720317828, 0.16840694544135615, 0.11426435640752479, 0.006832380516390913, 0.08638207669952314, 0.15037479515273866, -0.1593278403497448, -0.07071114957955425, 0.08966233926110372, 0.01638946532182251, 0.01880641372970446, -0.07428762014569261, -0.0674877561721219, 0.06541635137413225, -0.1029053020868266, 0.08024581612686134, -0.037310958074967315, 0.0798431569718799, 0.10909734140531284, 0.0918471168157497, -0.10391732953757193, 0.14159819555697928, 0.1404856811880719, 0.1545652600850145, 0.0017258977659972443, -0.37189125245701793, 0.1207367802045129, 0.05086246918855675, 0.1104181821023091, -0.028905978604337558, 0.01718622733791499, 0.0942774171782808, 0.05852630221321883, 0.1319648072206197, -0.12342706998834067, 0.1219423612807858, -0.21624763719608686, -0.07662479080514031, 0.16350730607927194, -0.06888503386725225, -0.47367616375261573, -0.10059773291428946, 0.17159284447406675, 0.11891352401621988, -0.09596892109158676, 0.19764783339286637, -0.3904954499082862, -0.1310135052296994, 0.18594370885802328, -0.15509644720669655, -0.21489065083508704, 0.16564766496403874, 0.05923664973000378, -0.19257464392987106, 0.07158241934885379, 0.08291105382395418, 0.10523530073662665, 0.1003387784588216, -0.012346766083630596, 0.0487294990379308, 0.10193366113245468, 0.204611242690043, 0.3693990295681378, 0.07634556557584775, -0.005208994179969815, 0.23218959490954386, -0.035610017626525825, 0.18968243294610615, -0.07391133246675055, -0.17090407404066144, -0.04636466797329247, 0.021689582220311057, 0.1773243064994967, 0.04720469504492934, 0.1558467875065032, -0.15389259111695458, -0.044582682286633084, 0.06858913377950276, -0.08849718627497286, -0.20143241742913554], [-0.15692657594948575, -0.185994712038323, 0.12415654983473855, 0.0029702540103467606, 0.10700560293637267, 0.20220154884558603, 0.11396155524463737, -0.1933981339420621, -0.1314291102248981, 0.0527362986964352, 0.07111500715938435, 0.25555084259807925, 0.13212049612261867, 0.08223908081800235, -0.052600552413475304, -0.0836399049243617, -0.034739471383318135, 0.23522814620596408, 0.17148242721511953, -0.0766595027822317, -0.04015768793091803, -0.20614938323829238, -0.5059784609521172, 0.018486162096816288, -0.0529857083902534, 0.19306772870887676, -0.15374656947189838, 0.15637965262587575, -0.028133122635863306, -0.3506750737589414, -0.22970583428977318, -0.2101160733068506, 0.15277811670328706, 0.18901339136481418, -0.18803768407318708, -0.07765585376300715, -0.14488431872435842, 0.10190816283987032, 0.0068515267126089815, -0.011569337781395876, -0.0737476186865155, -0.021960988177348574, 0.03546865680727874, 0.19774238030397265, -0.24771886145704397, -0.09970914665709589, -0.031994698743068185, -0.046827275399592014, 0.130716615024584, 0.05027937658674794, -0.17262242103402026, -0.1606089232300585, -0.06251728598783753, -0.004841325185742211, -0.061524019954261204, 0.007890415080568175, 0.11928430930031496, 0.1365809823597377, 0.19731132816831976, 0.01729376502885439, -0.3743965478560222, -0.1577279690935091, 0.19690062938351266, 0.03838409552372557, -0.13026832923947848, -0.1790095125115206, 0.05032796710192591, -0.017638436681212354, -0.08587263760981115, -0.4811365996390286, 0.09689430721166115, 0.12622453900397745, 0.26150951236199527, 0.2385314221952781, -0.08170097860637507, 0.19230969259217356, 0.07059770408915608, -0.21847690783880333, -0.39115320261477887, 0.0948685522453558, 0.05614054974968378, 0.11978247001791632, 0.1220385449369767, 0.05843521272898977, -0.01878942698144092, -0.2236870117489935, 0.08335910954239947, 0.08878141240943188, 0.05361200515692318, -0.13566369613536022, -0.08992937011540267, -0.07391291862012934, 0.06324732745357312, -0.07514918605766763, 0.029673836441525502, -0.083503209944682, 0.3215687404696865, 0.053454360745134884, -0.10901802775011482, 0.266842148949768], [-0.08818427755895686, 0.10803618625159457, 0.04085407328297135, -0.001261796416986492, -0.12212247388299628, 0.0853028692037404, 0.13770407963926232, 0.12856828939331022, -0.09569291183632009, -0.20784532175340353, 0.3198331474060358, 0.02550491456981905, -0.16678165881413326, 0.27561570052053774, 0.08807106263839284, -0.03626802644725878, -0.12307483793245395, -0.0005918945982124764, 0.276509531136173, 0.35524378740109197, 0.19872513365494318, 0.0631690576067276, -0.02618113046324885, 0.17442656638481518, 0.1578164462160216, -0.1553098782053722, 0.27582867358949387, 0.10960964207701769, 0.03857574637962138, 0.3135885304423681, 0.16136707692656957, -0.20234741340730264, 0.15945283638075766, 0.02247494664278528, 0.32489370033261306, -0.11934941081244926, -0.009525429420656673, -0.013321333951592447, -0.008831800291986842, -0.1317031027584939, 0.015209562921788366, -0.11953606928302786, 0.013442258637013338, 0.04263690595336355, -0.2644732394111956, 0.2151647923639634, 0.013988301050361666, -0.3049540217077374, -0.23667229532202164, -0.18973183700466006, 0.2547300536051145, 0.07635572054174183, -0.2484099910467107, -0.2605623267297919, -0.08546417990043956, -6.7457374251942204e-108, 0.22938612322619015, -0.1302515470345223, 0.1557582115810891, -0.0003195072565203238, 0.059909535117695194, 0.13341797870599106, 0.07196904501669409, -0.2957856942996314, -0.2692141331100691, -0.15175661685571326, -0.04877690209487148, 0.19987100595841437, -0.006787469425769571, 0.18140647403338225, 0.20837016553734314, 0.07503081454252346, -0.045036390990821976, 0.018949654277448446, -0.03596817879170459, 0.02129489574211216, 0.08972570026812333, -0.19323541232034883, 0.17951780087193805, -0.05276676500120372, -0.020079484249003805, 0.12425733840341968, -0.05370774759427994, 0.13863309068119078, 0.07933074807185345, -0.05662986913248664, -0.21531276661579973, 0.33792323436751665, 0.006276842142324803, 0.11421092399238816, 0.00757314790084367, 0.06187900030953156, -0.08561201685991565, -0.12971467652872623, 0.17067737958278853, -0.2852495065019613, 0.3487393840623836, -0.10293706737644133, 0.2434387237663702, -0.17508549512828478], [0.05895225130343679, -0.2580671665038274, 0.18782811924668513, -0.04764747655291447, -0.10268824583173262, 0.12242075287348689, 0.12422304507778455, 0.013953554144339785, 0.11816448132622959, -0.027986165845070615, 0.38152634730503426, -0.1541744482692929, 0.21359700039287224, 0.15783473465291561, -0.03438237086309576, -0.09124374547374421, 0.051919546273789884, -0.2368572331286243, 0.16569889396510387, 0.2516020205514776, -0.21344525499818318, 0.15178133679557826, 0.07445387291309807, -0.036505804873186304, -0.07553566365552299, -0.22125897797301078, 0.0739513076017081, -0.13021021662730903, -0.19350982522497662, 0.2502633960877184, 0.004108521780533332, -0.14467975723018223, 0.07140254254636504, 0.15955940564668528, 0.052523071011328054, 0.13933066261388036, 0.276155198105398, 0.1296957961155769, -0.12728999780622238, 0.19830270609543663, 0.16168622380103945, 0.06502775994475442, 0.35453195138816757, -0.045956500592137225, -0.19808916589226916, -0.08861432607981894, 0.22524680252253804, 0.05802993469028622, -0.19587719912246665, 0.08109689719658032, 0.4104599713186685, -0.13906840096639347, -0.27713132121962486, -0.0619330663901401, 0.004845683701251555, -0.22142013316862613, 0.31845966861602076, 0.046428151090854394, 0.0554243962980026, 0.13309566648153226, 0.17104673685055963, 0.302738253056118, 0.23653921117067492, -0.009370512754580776, 0.04208392898312446, 0.009060397748464488, 0.10329205012564553, 0.1877061106516226, 0.06016652393593484, -0.04493892075044038, -0.36948197380245806, -0.032988603969982044, -0.1127875980665342, -0.3185296938365671, -0.19369843985744495, 0.06492235796772286, 0.3539600737074572, -0.11004625533631206, 0.4234674275819195, -0.013100913630012045, -0.09635966462902816, 0.3343863943163224, 0.03879661465200689, 0.008295274247507787, -0.3124675929354988, 0.001838245835020806, -0.1751727348321791, 0.11245615861508475, 0.0859641026906174, 0.27102504951186485, 0.048908939726983375, 0.15166094198260324, 0.18273807047604482, -0.012430292871043202, -0.05701061663773278, -0.030876510977948413, -0.22079220285126075, 0.1475812689034542, 0.22940642999024913, 0.10205435486623499], [0.01522587667835888, -0.12098721383353885, 0.0038937337277871, -0.08657439689217519, -0.16584379171304908, 0.14014324324682884, 0.11361033260167379, 0.1301451938651254, -0.07301664310527561, -0.07732906014663231, 0.1370946184971827, -0.14597038046702562, -0.29528603121111374, 0.21459148655999122, 0.07920542190624354, -0.1999055444210181, 0.004447722796121424, -0.15953194867388099, 0.4312606517744654, 0.3756573293985683, 0.05460300710386687, 0.10074682799717952, 0.10677319508637045, 0.2872970992930182, -0.07545928976627304, 0.04406139666148507, 0.06772039211825837, 0.1542318442674819, -0.2203425300155227, 0.36423300119010565, 0.05828594840181452, -0.12140890324839351, 0.2275144528657132, 0.2299279725153644, 0.04265587981165567, 0.06718287611157162, 0.1621932934889916, 0.026204457480456855, 0.008533485326755718, 0.08047701630397126, 0.10511284201887401, 0.12479429921516375, 0.31039223247544423, 0.060627852465879, -0.24469305475213446, -0.08048513582574032, 0.31363431867560165, -0.1525458752745406, -0.12478290163725732, -0.09965929488649643, 0.3420977793437852, -0.03405406017982921, -0.1596638279336848, -0.09818243799820141, 0.19781129066984218, 2.6169389844918775e-103, 0.4749026576846704, -0.10688712410231231, 0.03065631531613294, -0.031965507600143564, 0.0915703311503258, 0.20417235867019484, 0.18937660570791362, -0.0723297034004869, 0.0017504190559289802, -0.11342387952223573, -0.2682398887438091, -0.09810957831829359, 0.003949614784542543, 0.17582674309658783, -0.15029363518174055, 0.20268787185635576, -0.09816582830123576, -0.06304312295773594, -0.09079204310584825, 0.32629296044198214, 0.07329920677147274, -0.13719694821751444, 0.5225283533423212, 0.043181611668449124, -0.1432817245475222, 0.4000449223754473, -0.0470216213349171, 0.0057704129588154246, -0.13471673223270222, -0.07109184124409906, -0.02426155569829566, 0.004651868361844812, 0.05282521653779541, 0.4077082076215534, -0.007788628020572543, 0.07902350635666812, 0.18719791279909914, -0.051525705199698756, -0.08776193142437594, -0.3123124988794522, 0.17188781557827457, 0.23966897068647525, 0.22729999837711767, 0.051882963385466885], [0.11615528171177279, 0.38756105918284106, -0.038906283233946556, -0.007003637511243483, 0.2011497521286869, 0.1552798476411274, 0.24387789043774452, -0.03647167404831612, 0.11780605310973646, 0.14951264924394067, 0.00573081955686906, 0.06682685887989269, 0.40343753498071505, -0.13002398234561355, -0.13320467612700307, 0.20952597370913065, -0.018152505260330958, -0.04161232715892122, 0.2743006574254563, -0.09399535200027573, 0.14440907069843864, 0.17174434116178375, 0.1773113556010375, -0.017839525347326794, -0.05475538046997673, 0.35011292526884147, -2.8302887266044478e-95, -0.03483766030777533, -0.08527918523432663, -0.21395916374022592, -0.14070602542672112, 0.555500628344289, 0.26468713554589907, 0.3172070348539412, 0.11154641335964628, -0.05861344223178397, 0.5906600708668033, 0.2867747937206266, 0.3071851979654893, 0.2500089786490808, 0.04948774811182135, -0.14414291097228307, -0.041931255250565465, -0.17673727060237363, -0.04843448210539956, -0.2072453646540179, 0.29653769420092857, -0.29670917397997487, -0.024144266077306964, -0.03605198052254326, 0.06466112158054287, 0.10353499342812232, 0.3575580009052628, -0.12587801901772788, 0.10827840388213275, 0.011870467918193052, -0.03518604869692866, -0.07231626377845206, -0.12009324191617823, -0.029221073404493945, -0.07651431384183732, -0.062437696719903873, 0.04089516787743502, -0.08262455669672887, -0.13949281572639172, -0.0018881836087499323, 0.3393074546230633, -0.02271134874129782, 0.05397121476120107, 0.09549614363551909, -0.0006119935002672328, 0.12497499211999608, 0.3133088030989355, -0.06004153639831424, 0.1312203557621817, 0.06689401804220795, 0.282609470046845, 0.03787964102466975, 0.24932378523005924, -0.10310528217651853, 0.1381379721305591, 0.09301166082274707, 0.501181639097858, 0.05031501896575821, -0.12391499149185728, 0.08662729295028167, 0.23482640253835202, 0.2625363289033356, 0.19891588661710458, 0.183566484326389, 0.2451975063542781, 0.06983539143648103, 0.10085427186448023, -0.05032342397721476, 0.03331423643987794, -0.013025328032344834, 0.1428882707877187, 0.40683135900760575, -0.02590040458232434, 0.3125908002706624], [-0.25986507458406455, -0.010019637689205708, 0.0034214055442488528, 0.14896674810098573, -0.010107112444845053, -0.12356363884436267, -0.0637380221315306, 0.16172857005447205, -0.3419570747421035, 0.10848954601701977, 0.17566463770577734, -0.051446674549061044, -0.19906525628870533, 0.10240109089853472, 0.038691761704517755, 0.13237078031665897, 0.11291219804795743, 0.03134519762162484, 0.15917232667824396, 0.09506289632930752, -0.08818790942147436, -0.15764276559135235, 0.020038113917614772, -0.12378522035606213, -0.09014908274345991, 0.07329186608996184, -0.01776276538804229, -0.0744291234806442, -0.05192102570000062, 0.05392433667761794, 0.09293312346597125, 0.05061191557767522, 0.06176072967805561, 0.18027179769035767, 0.12549288647055565, 0.10553388792112964, -0.018434316447855602, 0.016971808044584712, -0.07894662186103119, -0.011324715914795263, 0.0972540651984162, -0.02606672863790842, -0.034638195315693954, 0.08944629132678777, 0.12863893158844925, -0.01433970816653356, 0.07285101281268919, -0.1274905948399673, -0.3361573381118267, -0.15153519192042633, -0.059732694062683105, 0.13836635384107046, -0.09955877266657898, 0.09420570575347617, 0.10023482400854873, -0.046306799496157756, 0.13259769411006034, 0.14772878618376487, -0.17152019783284964, 0.1098300489464363, -0.44330506212516624, -0.0153489221254102, 0.08576709381066172, -0.009791496759979522, 0.047400453289725294, 0.0763017206431052, 0.02451841769410361, -0.23080247373897092, -0.06019660835732539, 0.10159568759035273, -0.1430552484955265, 0.12329706351636072, 0.019742897741485018, 0.1637794232382248, -0.140727498715659, 0.018026634387041312, 0.07859217135987236, 0.05539690816212967, 0.10731473590742865, -0.24316303575050058, 0.01991599237145324, 0.07214189591914841, 0.13818655868370475, 0.023291669508806376, 0.0031259834169442974, -0.022447065744537587, 0.2018064619583353, -0.13992641207933512, -0.05828788895541782, 0.06039857156010443, -0.08649317236386686, 0.11038124455147925, -0.16541609092319798, -0.013679320955629374, 0.17087732582661472, -0.006692041347198381, -0.03398612186346149, -0.050709763765402795, 0.034935209960589575, -0.06767132659633238], [0.1914631809328879, 0.03140091805537633, -0.03457194518827367, -0.03262135926266701, -0.07212365171953622, 0.003337948957582601, 0.039954466152252746, 0.1447960097624753, 8.992000520688231e-97, -0.2034066579665279, -0.17508093537916622, 0.25353470986719007, -0.11261266756738839, -0.17353961151517475, -0.0029558567451249277, -0.05248654277139698, 0.012288737624654517, 0.06427902771662883, -0.4474601295462873, 0.38044893071617925, -0.04066102363011478, -0.07628662033089059, 0.3471085059675399, 0.2851968005261622, 0.27961734025436685, 0.20048827287688298, 0.12241207067142541, 0.05076408919372086, 0.09804831957154224, 0.07763619527717752, 0.02887353121132597, 0.2917918592791637, 0.2824122686790504, -0.09408637600092264, 0.2131200598830072, -0.047729576576326704, 0.13068702953556746, 0.058443389671414644, 0.0006914924882416519, 0.0308496178677407, -0.005877765942444344, -0.11635426100495284, 0.04127381842740001, -0.07021552060311553, -0.26998676705000163, -0.06233665065256742, -0.02830796026933781, -0.35595569298517216, 0.31203561670691055, 0.022508434169875167, 0.016579458225304124, -0.009598080557452742, 0.17298034106293925, -0.27734365122627913, -0.014933075547836247, -0.05754739470962755, -0.2891939653563381, 0.26769298725910234, -0.11557930298507203, 0.14938425354927817, 0.07993145046269556, -0.06659041907834068, 0.007791127299401913, 0.110591822266471, -0.13450541295874613, -0.17533987114267147, 0.0657314425568879, 0.24359731847525362, -0.0928474103660201, 0.016883294649120452, 0.09000280990810704, -0.13084014404877678, 0.12462367862945735, -0.004105063510155286, -0.048395059720685425, 0.2099595010932217, 0.07299508626335277, -0.14359220291876865, -0.06313604523711858, -0.1965024461322423, 0.031502606196182205, -0.023655695683253538, -0.12438690700636335, -0.19267589286741105, -0.08630196953363983, -0.25469714317496245, 1.2580073490398332e-100, 0.2252519119375128, 0.1530876697682719, 0.13702465034546607, 0.3980008911635363, -0.17731677689557812, 0.01449644355686473, 0.012916245796358848, 0.23092729802731432, 0.003736154037368087, 0.6180938259663274, -0.0330529592144167, 0.15364195704669031, -0.08058128298256459], [-0.004484725174585066, 0.27333964150363255, 0.29434506931097726, -0.07370920763324366, -0.06458408918282457, 0.0022786601797290438, 0.1962119257920311, 0.3553017998283777, 6.249888958512897e-106, -0.1962894412584261, -0.11612994045028598, 0.30970457852106414, -0.08565855444634385, 0.26907985585366323, 0.152379236077884, -0.1728574667251041, 0.30695059425521687, -0.00262061989346781, -0.07200590298796368, 0.48471937553767974, 0.0033609558993501387, 0.049337713906803055, 0.31707028012399663, 0.24434662450101724, 0.3770169008096576, -0.037222602460686156, 0.4224445017588042, 0.22598520400819785, 0.0889843385251332, 0.4243611923543992, 0.25600194476467775, 0.28308377759621806, -0.08622494578461906, -0.03574829678208517, 0.30252830747797577, 0.12991550497553575, 0.2699311319876161, -0.09936172644116446, -0.09558496842373228, 0.3911209188189219, 0.252804949440821, 0.012219086340774706, 0.20596852617870967, 0.06823061181709623, -0.14999341822237502, 0.0719596409671136, 0.011931323569440202, -0.1857996429802561, 0.004424763845043893, -0.13653174339109356, 0.3728990838134326, 0.06082476153563042, 0.009864900656363303, -0.18450078600767816, -0.05494219423180282, -1.9014271423311765e-99, -0.021164153199281974, 0.014569443146590526, -0.042776670499434656, 0.29129443044117764, 0.2991898087571072, 0.2460761593596461, -0.17484301390418236, -0.08694946639305975, -0.0755427792529654, -0.010411565052204348, 0.22890375114889708, 0.16997873533590602, 0.10438814174393132, -0.17935687302867995, 0.5271429351303288, 0.07047386925933107, -0.1330296900084605, -0.017236961796139646, 0.2069939021554136, -0.11609908897174384, 0.24963700731608163, -0.11270984314034081, 0.301388619568021, -0.16210779173609932, 0.15830586847062675, 0.4035594432603401, -0.11459535964974334, 0.032449824276833676, 0.3309082336684568, 0.034525709513988534, 5.77912775786399e-106, 0.37868333690405703, 0.057061192960857064, -0.1346135653660743, 0.18749206599745125, -0.13789371706186795, -0.08479683844156045, -0.05552680268435433, 0.40484202613687326, -0.1807324467588021, 0.4560536273047174, -0.05615850597202675, -0.05541590430365512, -0.1504726371603278], [0.17862010255397454, 0.14658411576960964, -0.01404675887308468, 0.1104172787473353, 0.22243025217369883, 0.0281369395472412, -0.02266104032730184, -0.26609670501799365, 0.14505193732711802, 0.0738881101314469, 0.11922095322461819, 0.14127572951882292, 0.11500545675041383, -0.29418606486858645, -0.04422610458112463, 0.2032461260100289, 0.09847407128300396, 0.31802711070439327, -0.21762782445343098, 0.005154369944163696, 0.07480091261292415, 0.09195840950311084, 0.03518230360320977, 0.0627719127876984, 0.09858187947069727, 0.09629502676288867, 0.05647920061000517, 0.18361915731634607, -0.06943592281926025, -0.04407902833695854, 0.01917779505350244, -0.11834117995305708, 0.07626416567311212, 0.08459070363742416, -0.07265772052647416, -0.1787674897165591, 0.040674419237349, -0.08103020302993966, -0.16828452571161345, -0.08801640023676642, 0.01525680964757774, -0.2238825676701275, 0.10557675133514494, 0.08327679109052391, 0.07277323732000184, 0.10154905466123301, 0.018080616577139767, 0.22474639704012647, 0.03432371065228099, -0.00707199396920235, -0.12037045152475741, -0.07486042497996198, -0.06968771484562013, -0.08773562967188474, -0.08256597509161802, 0.11522184103053859, 0.058706602988121706, -0.13193628237715913, -0.05264397146618093, -0.10293904016056801, 0.04395145375715066, -0.23724864559674652, 0.10970394800165421, 0.265155197248303, -0.21086752907800518, 0.06982556411523587, -0.10419911198822958, -0.07137576124188126, 0.11580236289869995, 0.10569007290146883, 0.05050528573596916, 0.009646234208767833, 0.13760842853436508, 0.020337088521041467, 0.06555255955310456, 0.10963084314819665, -0.06818325254354117, 0.007079856723985405, 0.144949507071582, 0.05066828839916939, -0.09200868936274718, -0.2328012396216279, -0.07112599832376006, 0.15369674218982463, -0.5682529510234133, 0.08162340758217712, 0.004657122022079664, -0.04113866872344483, 0.0306252119294991, 0.05994432566671699, -0.05976072399071147, -0.04878272796017742, -0.06977425214983653, 0.15138049361167738, -0.06307152181688451, 0.1556954284327419, -0.024377479817820884, -0.07189603470038128, 0.08347596541660267, 0.07685932788484016], [0.1610321154183011, 0.0032583073278668736, 0.2968145699293905, 0.04631821811925036, -0.16573769757996162, 0.19845813388987815, -0.1858296794230847, -0.16059332280086272, 0.2636296276291213, -0.14852985656564502, 0.011887377609972133, -0.1732741611517851, 0.25655748713592713, -0.04632093077817502, 0.005665277707161242, -0.012521263257740393, -0.23223642431813546, -0.311584520634788, -0.20677611534420026, 0.06108001266674462, 0.294345683185203, 0.09654551072702956, 0.07757001920371781, -0.08269191904870235, 0.11764653998977234, 0.24347762929700026, -0.3045516476610794, 0.11598219930684929, 0.2879737095270674, 0.13507670516881184, -0.20313028680749165, -0.1819145424946866, -0.055392863040869496, 0.0016304595958664895, 0.1864975387007667, -0.11443332477721758, -0.039217876629583384, 0.3977888626524237, 0.05215055678299859, -0.07391841529666533, -0.07893347932281465, 0.0825854068644667, 0.2367968799433462, 0.020424687870588744, -0.17068036633739697, -0.12353612121119317, -0.12102317924546904, -0.103066137051224, 0.19719338691099222, 0.17537199908079454, 0.21834300780933233, -0.001029186397030171, -0.0005190574272330514, -0.05733782701074412, -0.11850197666798008, -0.08265224667900024, 0.06104127243092387, -0.0880055572202118, 0.07099321398738716, 0.06692561082061833, 0.17750219438054507, 0.11460609183272724, 0.1320151794498931, -0.09604426560191086, -0.07693469450936688, 0.0866515333835901, -0.08802490066332636, 0.07526394967922345, 0.13259965245658484, -0.12761512235993183, -0.05936273412920205, 0.13268918135652621, 0.027056477349335955, -0.0042627163558667195, -0.09422133088942923, 0.20048353636067157, -0.16334870590639752, -0.018011524649984928, -0.19012541127698523, 0.21784072265457632, -0.049914996682505465, 0.33254283501295057, -0.10530848749243495, -0.012121196924693343, -0.05574382512125734, 0.03191743025763063, -0.20379967486904477, 0.20714839539972202, 0.1177051123845568, 0.2202597459817249, -0.1317973699905983, 0.21656431085886552, 0.2954564913078394, -0.03959701169534881, 0.014344329481074884, 0.2208440675488781, 0.008622933078133421, 0.17489348287938783, 0.005800403764258529, -0.11154346639633055], [0.09496885704468656, 0.14029410011477994, -0.23445402557407805, -0.10703121973217684, -0.11055862243902083, 0.048692876988416095, 0.030108842664143567, 0.08510674804112615, -0.12360001808508411, -0.11775749471000359, -0.12392658598762395, -0.2906124700982293, -0.21130265341343898, -0.07170076824519304, -0.07038921074315754, -0.01297264529725337, 0.0400629001228965, 0.3282003030850097, 0.035877556421465645, 0.25732553223473165, 0.2161811678476075, -0.08862401825504504, 0.3788430276493213, 0.009117039047910882, 0.32429909736270446, -0.07176981058268955, 0.28075643290473645, 0.2556502278692421, -0.04018293124726244, 0.21873130829314696, 0.31693968302089853, 0.11906355873787311, -0.15791683945112334, -0.24567944115739523, -0.032547325253499286, -0.0552301397247442, 0.15182902349764638, -0.18684917218897967, 0.36004223281505143, 0.09564994583864092, 0.03793447846679014, 0.0346833312730354, 0.2770965535135171, 0.3195282052759919, 0.16903843535872962, 0.14241633521272834, 0.43445543971938366, -0.183375067019988, -0.22215982802256032, 0.016789049690706975, 0.06309659676082179, -0.22189101737666092, 0.19074769907709344, 0.12772449281130008, -0.19624780235332676, 0.0835268600159971, 0.23669248203021914, 0.22596597851455374, 0.15796867167336776, 0.1044391243762067, -0.20952355663999514, 0.11026176643787645, -0.16605284671625703, -0.1371882896763089, -0.06158215877588064, -0.07496143941525259, 0.13308894540578223, 0.005577398975465417, 0.04628610775826761, 0.16745333055154088, 0.05689065279278034, -0.13031801296783108, -0.14937937554928063, 0.23795815209768723, -0.03692950448929519, -0.14292322722774967, 0.22556854281589508, -0.2567058327213597, -0.04606972858786845, -0.1924614624153923, -0.19420815923513768, 0.015869557582406806, -0.04937730409288859, 0.3052531310783572, -0.11237428596808346, -0.038909506093300406, -0.014141052140945468, -0.19183171047979006, 0.10943337243674817, 0.31523014729952853, -0.07937942654832693, -0.13941882551865714, -0.015938114633942773, 0.3227545771344791, -0.004756873975444974, -0.1270950846996817, 0.31234548674018525, 0.09870767441492723, 0.07149704539296234, -0.015250273544488843], [-0.04539640627461375, -0.1782162717005034, 0.36086511792835896, 0.12736360836514277, -0.17140803162064144, 0.07497979619952351, -0.013555558816620872, -0.14589225351688295, -0.012456916266627746, -0.13243854809760322, 0.05899432657603875, 0.030322545261137757, 0.15746539220403868, -0.08310604107622303, -0.11449053390258908, 0.1330378198575898, -0.16039139470259534, -0.1601801769976687, -0.22819105451990326, 0.03814470696237263, 0.15469608630872383, -0.13490925462743383, 0.04037622841846845, 0.25206488195218146, 0.07126797362938701, 0.1034682757253173, -0.17532235985796008, -0.01307211041472422, 0.039090080483037686, 0.016058995013247222, -0.07957076470132411, 0.001273525131265243, 0.22179764985815834, -0.1630382216939743, 0.20677338402708106, 0.04961912461924123, -0.0382672756240293, 0.33207671563599767, 0.05987449490014451, -0.00858762100173276, -0.06838289140297589, -0.034596600105996425, 0.19597237111407323, 0.008833399759312148, -0.006956154238441883, 0.1248437646539176, 0.06399827935027698, -0.18963233577558347, 0.11775418974341122, 0.14071184333349768, 0.07826756110938031, -0.004750725941952244, 0.11619220522786346, 0.16679888022541056, -0.07262986241051095, 0.057856402209731476, 0.15529123579253074, 0.1947875613726057, 0.041927237064356054, 0.0568583004971223, 0.10037127464632702, -0.05711882722893574, -0.008560857405535147, 0.14376521607217613, -0.1733253217068119, -0.09975204685990942, -0.03044289556935639, -0.023072262850902733, -0.10200448726612805, 0.09444425579820859, -0.025393732864093382, -0.0925251726369757, 0.020196516823463646, 0.045860140371038326, 0.010491963456532931, 0.3949578366800379, -0.12927013220286435, -0.1341719886977275, 0.03441902023804667, 0.2318233940940076, 0.22141390668603766, 0.17393745593191753, 0.04905151120196964, 0.043781696262852186, -0.125838131079097, 0.012210187089388896, 0.09878535610698364, 0.17179873089768646, 0.04309494430483621, -0.02596221008447951, 0.14190627324940283, 0.24871593850607432, 0.19727594890207215, -0.1918113151849354, 0.004028889039681769, 0.26607845476692943, -0.05834539133000311, 0.06735935809320821, -0.03161830737576737, -0.11971931591216994], [-0.13432867472605797, 0.08638693583907765, 0.3056515773064773, -0.1968806604207541, -0.02585827579631747, 0.1637648970949342, 0.03178789609814506, 0.16815884954770444, 0.09651259957363705, -0.20675782464875475, -0.07357662803442877, -0.21599117522023736, 0.22486103964509316, 0.16253642197511667, -0.0860611687435333, 0.025528105732982607, 0.040082308989378784, -0.17878642779359874, -0.28894303711321356, 0.0755264605957899, 0.47880972261860144, -0.13530179649156987, 0.2566293393626217, 0.17128498832498404, 0.19193419751944588, 0.1275402445359093, 0.1513455841447894, -0.08471830862592457, 0.15210471632739694, 0.20652535351883175, 0.08026313825747149, -0.2281344362253865, 0.092687559073307, -0.1253996279397697, 0.10321066363085038, -0.014377280152070314, 0.14954384982273725, 0.2731567448782309, 0.10495589638439057, 0.07236836510762397, -0.04807197992442236, -0.06589891190903562, 0.1127351951985281, 0.14753628887668174, -0.16670416848700823, 0.219095268337827, -0.10018254868455724, -0.2935722552861281, 0.21683818248117243, -0.022014229176008884, 0.06340595039215456, -0.12000653315233552, 0.04219501296185879, 0.08304113797712367, -0.0947163373640622, 0.1603796168144166, -0.08163944303341585, 0.07325624370286526, 0.08032610772451257, -0.07344035920644498, 0.17143306977777353, 0.09738617277892501, -0.20886675188166928, 0.07191100966284772, 0.14479274044792456, 0.08015416827038756, -0.012693812903627468, 0.1578384979096228, 0.16041007074886912, 0.1988078640448089, -0.0865643231868622, -0.08020470996657128, 0.08880771965554266, 0.08538837460532454, 0.06486258361511738, 0.019547646729406242, -0.19880686198173153, -0.1750303545756406, -0.09392092687276206, 0.26613517901096817, 0.12397962778902151, -0.11734922207266996, -0.21240461836704447, 0.15850142033690146, 0.05194728232580613, 0.05677569039457075, 0.1187731885379156, 0.20209346631096867, -0.10493989549829744, 0.002583655636242503, 0.09460645083019986, 0.1041342733213421, 0.024836252401975192, -0.04129516642561796, -0.13180855772374533, 0.094422178075599, -0.17086785176346309, -0.1665957514694237, -0.06060955641009211, 0.1595425105508804], [0.032797480082172245, 0.4997881543813868, 0.29093029657745123, 0.09244160715922596, 0.35450132398688566, -0.16021658474157144, -0.1095942776399271, 0.06772521778852304, -0.1140009641268237, 0.1341907097430431, 0.07435317658811173, -0.2623264221014677, -0.4458322736638356, 0.09121493262037662, 0.17278977475853685, 0.049968990302421905, 0.11390851636624227, -0.1595922957295966, -0.40711038999355104, 0.04972833939640437, 0.02061565673413255, 0.11946643876634705, -0.160047630248127, 0.22653116742134063, -0.1582680834595666, -0.2693845860361783, 0.07674097718480997, -0.13788957238685096, 0.2971473067969468, -0.004702619595014478, -0.2772671885204902, -0.1378074356278114, -0.39541935671758227, 0.30947819218119355, 0.045553219594582806, 0.4094438271666796, -0.13649582066744043, 0.10551588762854791, -0.04767932850649129, -0.3491280486207113, 0.14673442177615764, 0.058935453433102816, 0.1570429021664847, -0.3332980057919571, 0.3613759721454019, 0.07551080858344485, 0.0020878504862505876, -0.12399405945763516, -0.020821429670533992, -0.19570630535292197, -0.11476175135436424, 0.10620910192930787, -0.026630675487457577, 0.03874216692275853, -0.034486687328603646, 0.25760499678915066, -0.270238183278877, -0.14459800654191415, -0.13815484788837307, 0.18744902490770496, 0.2040671402800125, -0.21275140102144513, 0.2698603027374512, -0.15187184448594004, -0.24986533052432405, 0.1657991010157318, -0.03705161966474807, -0.19231859355090472, -0.1439613352667769, 0.2319649160601101, 0.13455332462375377, 0.07984007148930236, -0.18116011410944935, 0.011711006721193348, -0.0088923292951237, 0.06932667096560173, 0.09097417087100713, -0.2869960439212397, 0.1207993160457872, 0.04136410496527666, 0.013981250955828308, -0.2049465851110194, -0.2173632923657811, 0.035878480570571594, -0.3069440911042719, -0.11922266302882084, 0.1146169815155184, -0.018716098756969123, 0.16831503479704812, -0.03904836615346762, 0.09104466919235245, 0.018363342205184135, 0.10135212276598671, 0.07286655155214293, -0.2523637630416403, 0.01749776262694172, -0.15740201480505625, -0.1800231276613985, -0.11272419170558538, 0.07455732238924181], [0.20014985631839816, 0.2653407464153516, 0.3220661407908006, 0.16377416481692256, -0.12283317349372377, -0.1244765499758953, -0.053180246775351055, 0.12217613216301958, 0.12628969280963784, 0.04210262352313447, -0.1146369533538429, -0.15533117289458961, 0.10344650319443467, 0.008744435867527869, -0.06621976661158684, -0.256363698652849, 0.1747529892217953, 0.02654162047238975, -0.36052748957219977, 0.10275266455057802, 0.057516317172481755, -0.02040838014546738, 0.19832827198835276, 0.12469372350779344, 0.2310777513308295, -0.26403173983948147, 0.20980851046582047, 0.15857988207982382, 0.2648718275802058, 0.09086208286580755, 0.11830597389925611, -0.10803706858469783, 0.009369512644732373, -0.17174610736812992, 0.11972147998265648, 0.014863546456640186, -0.06864095458099868, -0.06678088798958821, 0.16017695121537961, -0.18764600108921495, 0.23962288219608133, 0.08703088871792435, -0.0660434161935867, 0.0651183594540297, 0.10546976835610708, 0.19800917316646602, -0.04364919833766531, -0.03851957012370462, 0.11502574140661465, 0.002695052685990431, 0.176070329487635, -0.011407000491413744, -0.04186293625945758, -0.023499544678153517, 0.05505536346584757, 0.18766100347363013, -0.12368823766364366, 0.16201667678547893, -0.15272787670127191, 0.1551983931457409, 0.21249140478578626, 0.07049940553622949, 0.027970101846627217, 0.11923325484124911, -0.1727763905945155, 0.20061105625456613, 0.05723846678166769, -0.05773090816785315, 0.17922716884140205, 0.10677935516865457, 0.11367639195326316, 0.12675826136841445, -0.21220045928421188, -0.1901183461843782, 0.09729391562156367, -0.21630675508697428, -0.3073557990721559, -0.2961382603604649, -0.036674342768005845, 0.16753626512134615, -0.17666171375263443, -0.1768753656652388, 0.04792248804086142, -0.10535909626890048, -0.19634505022964416, -0.16808157710349028, 0.24447628894301546, 0.07951048416083786, 0.011364352896171052, -0.16756965066516452, 0.27257392338655473, -0.16152369156747756, 0.05708831567407872, -0.1449442482578729, 0.021732025687967747, -0.18535642009804262, -0.13460882330898244, -0.22421151506254203, 0.07329786190538093, -0.010408970495834724], [-0.08112565855855527, 0.03307001055720391, 0.18541031981308567, -0.07761472737233964, -0.28464069822649224, -0.06157277326597975, 0.21493681878777235, -0.11343910996170767, 0.14217314039570272, 0.20526177979546736, 0.08650993293585175, 0.16411047664356876, -0.11454495998599036, -0.13334135424450427, 0.18787175884373014, -0.20873307003385969, 0.2813839632174807, -0.25028931220436995, -0.4124303558278374, 0.17163264840674305, 0.10680742262223102, 0.2013609206610177, 0.1271631064059589, 0.22673222157001333, 0.20094405845950064, 0.21548013709188518, -0.1315581606752102, 0.19593639202993646, 0.0992912716852629, 0.031391457561795254, 0.00156242203623575, -0.20942280878096, -0.04244684583067074, -0.38484695402615493, 0.1335930669051521, 0.31561348402827993, 0.0354146227399774, 0.0339052003540366, 0.19095699939608113, -0.07607496457065932, 0.10564787230199855, -0.11934639675233019, 0.3397395874494086, -0.18212792551195225, 0.2509243308098547, 0.0949975759099408, -0.12385836645789505, -0.04223352574116834, 0.09630201590203928, 0.2378417261464493, -0.13377035845383634, -0.23054867026458553, 0.052728519249967305, 0.10889329012396963, 0.18181863160500225, 0.10567381001904988, -0.23474541455646472, 0.2047705868704852, 0.1631390384135665, 0.24906742708454646, 0.22028173138269572, 0.2283810962766996, 0.1168475628021148, 0.36417594049296076, -0.2960018469684895, 0.00047144563193640254, -0.08553368093591962, 0.16682580451369555, -0.09782984997128272, -0.13468800138021536, 0.27636340338091114, 0.14840761503656244, -0.08991368130780344, -0.002054309426629849, 0.07177373971798748, 0.17163435045119457, -0.17512373681967697, -0.3185214714313373, -0.11393775346138298, 0.13720086281935498, 0.07458085092882423, 0.2605025510105139, -0.10883536607162131, -0.10700861244946835, -0.25962258816021777, 0.00707106715819978, -0.04133162609334195, 0.1706309870585067, 0.07320659004786402, -0.24238921909308248, -0.14679367674124233, 0.13242015374882682, 0.07772939260923602, 0.23403523392155623, -0.01577985203660468, 0.1277050784708487, 0.0337343007086703, 0.0273233005876206, -0.09491464863651822, -0.1734038458236922], [0.12653935440870773, 0.22066694921285435, -0.04473393497273703, 0.1551521338625762, 0.0233606974655216, -0.09535820840079134, 0.1872431078240327, -0.10491254082078602, 0.07829700135408238, 0.27509229953478187, 0.06298993844190391, 0.2110100931468251, 0.4239116292477261, -0.1333674262883347, 0.07063366264703962, 0.18789075107279432, -0.031030006092763397, 0.08049447213973708, 0.18125106633176685, -0.09330307599956501, 0.12724072580021978, 0.14321427841481485, 0.08095156152211805, -0.016092202579597557, -0.062862064890705, 0.1936192963856325, 1.4244103968364524e-102, -0.02360756063489589, -0.11461412952138131, -0.03283374807988989, -0.1365869709181731, 0.7041195417774347, 0.2516789674685673, 0.3101176813615507, 0.16449886171808265, -0.05756819844750461, 0.5931469394722221, 0.2628557896135905, 0.2854717572303626, 0.3320144827919706, -0.018598423021871764, 0.11711896495356323, -0.0951594541940308, 0.183785029419683, -0.09551892899319733, -0.21063654369783702, 0.2753029897568995, -0.19239828466468586, 0.05970505300172967, -0.07588308872174225, -0.03777344240392574, 0.12972283850538985, 0.22117189147629654, -0.03937205716335137, 0.009001933821781277, -0.04516548612675489, -0.047546929816488594, -0.06006038141425605, -0.15050948798170624, -0.027269277806469868, -0.07684423909648515, -0.0764535439860072, -0.009388007922914497, 0.0561604216972252, -0.08359067955413176, 0.14719457376441886, 0.3443459188512949, 0.1063052488566062, -0.0835076406444281, 0.2713996042344592, -0.00043627233745386165, 0.138985480433485, 0.23901117172296563, 0.09239481171643452, 0.13994492975963815, 0.2700652480240757, 0.23544470490641012, 0.2055791832596361, 0.3430509292264831, 0.14448415267707812, -0.07891108848852446, -0.052657289289260945, 0.42884284518427895, 0.2236488758533316, -0.1241499235758219, 0.05281259051905315, -0.041142957658719025, 0.1609812790521792, 0.011011240867738794, 0.2400733075491876, 0.19372214167307722, 0.09658747117670742, 0.09688843267056552, -0.05006425994625067, 0.04534869559099017, -0.1399636032674617, -0.09097471224329663, 0.2282328059505638, -0.038153352818702135, 0.2681288225166644], [0.2341930307092314, 0.45706883360489065, -0.12118625307607711, 0.3192491754951015, -0.2688653846381221, -0.060008451017936865, 0.0814393905784607, -0.1231632076942472, 0.11603300107354897, -0.025636304821890433, -0.05911369622820712, -0.09203690874538681, -0.0267040842850752, -0.04066201178242003, 0.021218643558132147, -0.1724820829253493, 0.324870196664595, -0.003079438864911225, -0.009410080706160248, 0.30077580532024173, -0.21608887306358468, 0.005825412360780707, 0.0492719672462069, 0.369146977675537, -0.015922554194934633, -0.20343516287568614, -0.039645799201050234, 0.300696595160042, 0.24488390352286593, 0.22634325457800283, 0.34127051989327417, -0.05915650604074712, 0.008418607329488502, -0.14457218755828352, 0.16236463396787643, -0.1020437666897712, 0.1449146419795517, 0.03013276624061385, 0.027623892595760383, -0.10360662862222195, 0.2791727746431087, 0.1378292943650499, 0.10334999436039649, 0.0006980592726553117, -0.08027731815722783, 0.11907595801449032, 0.19014011780174184, 0.18206095040107548, 0.2159554898203799, 0.23811358452711534, -0.20150890485668613, -0.09527489083201048, -0.06962389775167287, -0.12370690960970072, 0.045357473754226045, 0.1789303716177275, -0.12388895506018172, -0.05271841866060267, 0.10789319352731731, 0.1778450049988714, 0.3541736479465179, 0.3489740339369513, -0.06368473206005539, 0.13513009870537743, 0.09952611628311996, 0.03198390808454852, -0.13076495406342556, 0.16348314639110814, -0.002640074210911273, -0.11627495070816125, 0.45440728481624176, 0.16353744071576223, 0.08218288907903297, 0.08679748544782635, -0.11906815855481852, -0.08801730901949247, -0.20580784270965352, -0.10997647050639961, -0.20397961211398352, -0.21242477258380654, -0.11417455448982104, 0.21406152806890152, 0.10699264597630911, -0.03877200468954015, 0.1025235091438909, 0.03682816394226104, 0.1811424860760464, 0.13976381987314598, 0.05474969648201487, 0.07924812803498725, 0.195872528626301, -0.13434123714662766, 0.040053850385982644, 0.24306585669370806, 0.017369341253811923, 0.08283895326512505, 0.15151460761381866, -0.1933438648432594, -0.17588262839922647, -0.11968833762535092], [-0.06974077166680195, -0.14559618934358987, -0.15550224204610985, -0.07314661030731093, 0.16858936966047763, 0.17494109344402012, -0.2233629486617431, 0.006727855463573979, 0.17732007422869608, -0.19453759914677382, 0.05914533719249199, 0.05449451211547106, 0.005050223856014559, -0.1357711882470437, 0.07322796556338, -0.05949559642575276, -0.2720077696079068, -0.07995251171495574, 0.16106726321166534, 0.16854823900615998, -0.1626570363036403, 0.05058902235782414, 0.10737424898338921, -0.04467117257257875, -0.20221396513309134, -0.12251835134217175, -0.2447286948778746, 0.023148517893094654, -0.04177892162845826, 0.10704404958888002, -0.1568236353981415, -0.2186396698446724, 0.20774625237180797, 0.2534487298075412, -0.06750972792946808, 0.10315944232237928, 0.18799076922976704, 0.08840068934683233, 0.024569912135135492, -0.12294567220289558, 0.09309988294446811, -0.05076361244116878, 0.31793894559255936, 0.048546764246217435, 0.14666105208855482, -0.2791279300177118, -0.0057254059848306695, -0.014584501394802529, 0.09027531172821969, 0.07658577394507823, 0.061832428532338286, 0.013303590891368846, 0.11979882783046532, 0.0972753047084411, 0.14474886102745071, -0.2851977392868014, 0.16493003919089486, -0.21634490623386923, -0.0400869175711458, -0.03378756416601116, -0.014425294455102662, 0.04361247781067402, 0.1326540519239551, -0.355068929118819, -0.031730117290240716, 0.0019359911013908384, 0.016530485325923595, -0.09250045025591075, -0.1106915482200174, -0.2585195850698104, -0.0879625167662134, 0.09992242213118442, 0.04257420053100504, -0.15790383573233074, -0.043724904142166024, 0.21576125671746957, 0.23350485913850735, 0.026604215209101664, 0.28594962077617636, -0.032777453773122855, -0.2933936653309047, 0.13407056666275463, 0.043077982480147055, 0.2094322585939099, -0.21638621976550643, -0.08107320352340287, -0.1604316852112461, 0.021989466275792194, 0.1627465794066803, 0.02144778988698903, 0.2621495644412644, -0.06191606071246159, -0.09841641699650214, -0.05226200404135721, 0.003292580479831922, 0.08581357736865819, -0.1678985530514202, -0.07377739273519728, -0.05693335538260849, 0.014010708982598725], [-0.05372407084887931, 0.27146693515851694, -0.242978481246285, 0.07229671650419252, 0.24064717756746704, -0.16631715654365228, 0.2284941825451763, 0.1279780696351117, 0.17208743182378003, 0.2217989443777659, 0.16188107730208834, 0.04234585679872436, 0.10155445049798441, -0.05764949128524516, -0.04584745068356133, -0.0533179196538221, 0.017195324345396053, -0.12564538038178175, -0.10809462040672457, -0.17397597000123477, -0.29387679525000476, 0.07059509838273804, -0.056728249573975834, 0.03219142947148929, 0.1339469080456808, -0.17774486314733032, -0.08447644738784699, -0.16919081693181734, -0.059855998897612166, 0.14325854814714226, -0.15652285013734132, 0.15808441668637305, 0.10933773896651092, 0.022846794489882496, 0.03090141116817364, 0.1607957056024984, 0.035886223702190016, -0.1172853343472464, 0.023341988602029927, 0.23013588963283638, 0.15493519522849525, 0.1348095974264319, 0.09604408295376814, 0.08364499442472509, 0.19563484321465935, -0.2525154704107641, -0.04631602950786206, 0.332170591025844, 0.025705562564763505, -0.04014297405863739, 0.012367087514231684, 0.17066316247583405, 0.18789786518091783, -0.13285037334085545, -0.16875100665737294, 0.24781770326380487, -0.272112381033108, 0.22704606240631345, -0.11554136432346859, -0.07268859929221445, -0.019319317539260705, 0.07170434691791194, 0.15516144485658265, 0.03963750681049166, -0.17688457880641964, 0.1211479433411374, 0.09181022798314374, 0.03419994779655332, -0.12440759796725548, 0.15036185704402008, 0.05411875548382005, 0.1819930417384936, -0.12230129459373654, -0.05433614269613024, -0.1854139742691482, -0.1447806849677797, 0.24947562238861987, 0.09983628939625681, 0.07799755571746426, 0.06549666019387011, 0.16084816116004924, -0.031850132713991, 0.0971011699801928, -0.06414375077038156, -0.5087903250781948, -0.008396556376349923, 0.054387955980999506, 0.19917703544758664, 0.002882404875258177, -0.08127421624312726, -0.1130674007766882, 0.1308869968696541, 0.10677571950782759, -0.06903512318420192, -0.1501854359885436, 0.06826054221624069, -0.20594917165343327, -0.014097285869688577, -0.15403437647849827, 0.05234375243005814], [0.1152726973206922, 0.024766263689784365, 0.48623442813235973, 0.26984792747131925, -0.06771051799048312, -0.12799156935878783, -0.047303311479379904, 0.15282469957331554, -0.053489308503712404, -0.13136069362791694, 0.050888365495569854, 0.11994736650411589, -0.02552187313506038, 0.22855115644861704, -0.02413471186259722, 0.023316453215756434, -0.11700893171122681, -0.07422170710857054, -0.22098151998602034, 0.14406581838631094, 0.20595621090165395, 0.10244274610670127, -0.06676404383235625, 1.4672265951856803e-101, 0.04706943762800171, 0.2050294013463999, -0.07415842242411837, 0.09187352217374795, 0.29836017555183897, 0.3052432455926894, 0.4356409392616317, 0.04700276771553924, 0.08283730509926872, -0.2882642607272559, 0.3231541030561583, -0.14508061664498584, -0.02998131012085057, 0.021484799986846295, 0.05742421417550199, 0.2531930373990628, 0.22507720330368222, -0.0152398411005863, 0.03622549981275551, 0.25888180821102635, 0.027656648703546408, -0.06013992521525527, -0.056952567448181314, -0.1579000058727801, 0.2312264751336821, -0.07744350077765792, 0.22032137099346094, -0.12165335797718685, -0.12636414252262562, 0.0844405085410642, -0.08400578737515971, -0.017852735399321733, 0.5457423125172978, -0.12640971363790213, -0.06375935303858615, 0.15284715289101122, -0.07145582700173209, 0.11463608727178254, -0.12111345644149207, 0.005649611068663251, 0.18113512945071908, -0.17377753190789053, -0.15034948635240114, 0.177580310506572, 0.18055987729415784, 0.0963803414479932, 4.1470199789142837e-97, 0.008994805714649964, 0.19741448568483624, -0.015288220807596576, 0.13249064198014385, -0.07667456964887061, -0.09622997527049913, 0.34773854301088736, 0.011173729145299847, 0.24822314419875915, -0.0287366415175548, 0.2905774038323948, 0.23256014472323364, -0.0644772927567048, 0.44390746319403607, 0.08488356992907647, 0.2867893336857831, 0.30760013784024925, -0.1930347107501097, -0.07380075592242075, 0.1999234883865421, 0.060150500268733274, 0.11713069493648384, -0.02900552244438558, 0.17270740099531862, -0.13572447235582805, 0.24414126527890204, 0.13727682290438986, 0.07650507277840148, -0.029406100565041688], [0.18012420652428465, -0.2335168577099886, -0.09122817497481107, 0.015162689780668242, 0.3432930129412184, 0.13881077448249715, -0.07873243784284974, 0.05024723294771525, 0.1736082087592049, 0.034429648636592085, -0.015706720285445012, -0.023190488246022486, 0.30379471635929806, 0.18633395920966242, -0.05869851790850128, 0.1647018958888781, -0.31215796156629955, -0.2948626775613972, 0.2058559747687327, 0.04828807479158351, 0.1569726289345125, 0.20604706828876065, -0.13405925325407203, -0.011925287437422577, -0.05622182911010438, -0.06268854380358485, -0.13314031297249374, -0.18406316888460042, 0.006386809557280804, 0.2413290494653674, 0.0038558481564109287, 0.08974129934561505, -0.015292362537617923, 0.0010771452011840597, 0.03982499501091301, 0.21993076564077893, 0.17789811935498126, 0.1761235625526574, 0.16282476399922655, -0.07952793379090749, -0.04423207131666242, -0.20877847407352712, 0.27582939796094724, -0.017338331116571022, -0.07547977162151752, 0.035507216425873435, -0.05313566008893071, 0.2668384426544862, 0.15791087409239052, -0.01775037241548671, 0.017176809014728314, 0.022698692121859473, 0.2833060346838841, -0.059101645226100896, 0.0989257417678173, -0.062281791321610575, -0.26048281715282523, -0.03581855882358128, -0.016522402113133296, 0.07236081029912972, 0.06223235712306009, -0.04647470813769445, 0.14273415712965162, -0.18256177484809497, 0.2416459008234952, -0.07262882437927756, 0.1357280684125509, -0.10210815544631723, -0.21958067212101487, 0.1969361221996233, 0.0031639540272966104, -0.09087783065616814, -0.002030808807893693, 0.09819710172322105, 0.016768905587151616, 0.147640084750572, 0.2862374009759115, 0.05180134738382675, 0.01893699717607537, 0.07663325177265368, -0.16290430401655143, 0.04809756646069158, 0.257028299752184, 0.14826262480324945, 0.054996510151735636, 0.1319361327730071, 0.0432977258289945, -0.09545266246704887, 0.1081796209931916, 0.26235205343727225, -0.09180584274411253, 0.019922021553637564, 0.11011553169863976, 0.14769318509523208, -0.03264825844265893, 0.12115666338569395, -0.06488007087617821, -0.2169782396294639, -0.1149665122372942, 0.009751153501618762], [-0.108991597481702, -0.21080598046266735, 0.019008495386774807, 0.07822052703671277, -0.1328307180322711, -0.10340307274058509, -0.14781905156946196, -0.11334953880557573, 0.1916897664737024, 0.12156358808458971, 0.03366577460020133, -0.09786123526436541, 0.11985657793539248, 0.06653481239047769, 0.024201232154848984, 0.36849774462339974, 0.022791695684680573, -0.1181726558236687, 0.24343178474167745, -0.22211186810264066, 0.33978408703491275, -0.11142735572024301, 0.04099814558812893, -0.1759908549585423, 0.14457876244985116, -0.3450835566503323, 0.2499916137956637, 0.09787924234310794, 0.1410793246663024, 0.02277570167775667, 0.200450668326954, 0.14097089241795577, 0.14283181380997043, 0.12222515306556281, 0.02723523740090941, 0.05275620998735619, 0.08560420449428494, 0.05975514175152352, 0.4810811736987512, -0.03949901228256452, -0.12942213683550974, -0.01694880821906153, 0.0901057538458813, 0.18260940903364004, 0.13016250337226934, 0.03708300908211127, -0.028388710387131883, -0.19975402848346896, 0.04426065670354335, -0.07317999601965056, -0.023311573463239244, 0.19626061096531908, 0.17804375112531975, 0.0730588535398709, -0.020582307654164692, 0.25728912297155515, -0.1446838593001747, 0.03312447384157224, 0.05806817257497535, -0.141356471209321, -0.20564189810867614, -0.0733652980426874, 0.05989275806836792, -0.14344407600579495, 0.08418871206779907, 0.13796057667139838, -0.3245593352044067, -0.24507712105336282, -0.10535425951226063, 0.19297708035799327, -0.13211349228388514, 0.12785294985433002, -0.24590315692295298, 0.0529477237797819, -0.05115550190619326, -0.03953264384536458, 0.21734787876293007, 0.0908004774075673, -0.11477331583650056, -0.005834736419496799, -0.2511394169485452, 0.16724687601886146, 0.35909665588803286, -0.07416500380099893, -0.010072946425101875, 0.014786697141264227, 0.05521331330337753, 0.0647966994558657, -0.11531627371539302, 0.0732246146373188, -0.0794215298691696, 0.12477194123871084, 0.09967964081907918, 0.18301576204524986, 0.059830728190927, -0.2517570412242134, -0.18329225824682388, 0.11673621382201281, 0.11881039029235098, -0.20281807760688045], [0.1655498340988118, 0.02134642388834141, 0.43202147605460384, 0.3117236489157918, -0.07587314681064337, 0.022854989403387482, -0.1481705959531637, 0.12244785821623108, -0.0527833202503809, 0.036390228251101726, -0.1484978598021132, 0.06759138492729243, 0.09384978917092421, 0.06979551322128912, -0.0346846516216231, -0.07054129816946783, 0.02673547681990972, -0.11100387947436775, 0.05355271685790803, 0.11283369875392091, 0.21034519348724012, -0.10323174204980104, -0.020032740441612865, -2.417310558644926e-97, 0.40031588426828646, 0.24061047510749156, -0.06876012222752678, -0.07253727461719539, 0.3520629908439598, 0.23923356635883522, 0.26985240065769855, -0.010159402281678085, 0.0400402757530554, 0.01011914884082401, 0.3658899036039957, -0.0206754086810538, 0.09487506159105441, -0.01568272616623875, 0.11249728558688349, 0.2312086586518491, 0.02178145071332516, -0.004144665799618199, 0.015451264246649088, 0.09935559616946585, -0.11135783185359671, 0.13406636097154626, 0.08637308856514851, -0.12856971098808523, 0.03962952718882209, 0.08627747576139747, 0.18117706370657663, -0.12913888874499602, -0.0889692545836403, 0.11968216562904739, -0.18029041875181756, -0.010293568492091563, 0.565575708506667, -0.03920321494521751, -0.04014902469935143, -0.11917393477939912, -0.07446948414687617, 0.014826480401531533, -0.11943172129178463, -0.034414352343012634, 0.30447993229193304, -0.18579748708517774, -0.14738124273464326, 0.21342106045326661, 0.023361636254249085, -0.015446534760796783, -5.922998251477101e-96, 0.0842944865338834, 0.10975353354889132, 0.06833330870956661, 0.05184124386948064, -0.032492587390584055, -0.11870014130052563, 0.36362516539558115, 0.06067324188027588, 0.2443755428863457, 0.04363581491510946, 0.3143132961133369, 0.20439444342774685, -0.04149086984049465, 0.5118974643021519, 0.06628367181029277, 0.3304224341246511, 0.2891275703189331, -0.1104254882602253, 0.028983600071030204, 0.3235022884208684, 0.08435541599163467, -0.07998251192304161, -0.03005079776491712, 0.2561882305623652, -0.13823890109511167, 0.1282074756331224, 0.095769372806646, 0.13022719178001657, -0.11782106173169495], [-0.023089862886155967, -0.2951861778970043, 0.07387472773889595, 0.2345060427414129, -0.04427581671422608, 0.01869374761619401, 0.18094203360559355, -0.2439692144470259, 0.1273276613978569, 0.011883420935037288, -0.24107184319911318, -0.15819015423493046, 0.11677567880697576, -0.009120079940643398, 0.007818561910616272, 0.09302236576514217, 0.14428646625947047, -0.15841330594147618, 0.43383607273631347, 0.011925213939205617, -0.22488742458765737, -0.07603257633394833, 0.2063749230250406, 0.006324759833875879, -0.15783777096687227, 0.18102295562470647, 0.026173721846030538, -0.02769043408802431, -0.11519012838552303, -0.14956237393488112, 0.0752306827922687, 0.3850040388412571, 0.3854929373649313, -0.06523053931537545, 0.3015510289566769, 0.03301127184938913, 0.1824064203639689, -0.06978756332184607, -0.19990594649837026, 0.15702895447328924, -0.05634291466751352, 0.1663134788876347, 0.22888029275570373, -0.10840065542041527, -0.0872636306736988, -0.3640037029715258, -0.32844724335588804, -0.011900105635954944, -0.03228160385192852, 0.2456046056064137, 0.11334797418391437, -0.0355428724837371, -0.23224226172578816, -0.14458973292607757, 0.27074771098307315, 0.15868789276437928, -0.24397887127420373, -0.22555028556007634, -0.2996755403764981, 0.19066509839326545, 0.13327721905619258, 0.4225020086856747, -0.17822151416894905, 0.37790555514245533, -0.15573629400599026, 0.13204901462569976, -0.056479009075550625, 0.31113486279330094, -0.09772185323280015, 0.012090332042868536, -0.2236727578450457, -0.08620730899706432, 0.0328235768271321, -0.19621105329969019, -0.14025034844946954, 0.016862694797432982, 0.014103578907923651, 0.10210086038829849, 0.16982512194425556, -0.028672836527281472, 0.324491457193808, -0.1949391479909231, -0.10048648603950594, -0.08308004308907513, 0.3062909462574991, 0.15533038741868205, -0.18088344116994134, 0.0635919399989116, -0.07241476204332224, -0.019664010731269593, 0.019482540127809773, 0.02478062391612087, -0.30721626437718325, -0.016191746447140647, 0.029681806464890673, -0.1360244128597741, 0.1567913661618114, 0.07766303074279361, -0.01608642896426372, -0.15691285845501166], [0.1456125396011479, -0.02371545336607256, -0.2500773684575767, -0.05422465899961336, -0.35250673976173996, 0.06853765912647908, 0.1852764778983065, 0.05011729712977168, 0.0554950138920157, 0.06662932389274405, 0.1814092578015325, 0.045432429792844196, 0.039098480078295104, 0.057941104613962284, -0.25656324381135037, 0.04426093241675199, 0.044695187088518794, 0.14005905438781427, 0.1302795227555493, 0.10132488992259597, -0.16854212727628634, -0.1564598971170234, 0.2888334321828111, 0.07941411018330174, 0.17056799658235416, -0.019299902046181972, 0.2084252319708235, 0.12351380228146175, 0.12524588725343097, -0.11454951287438155, 0.030738501385857306, 0.054954575748943094, 0.024277477205330526, -0.13114105751533736, -0.004238966714982272, 0.03121945031447646, -0.13045993214294074, -0.006205662861380696, -0.05215237631491493, 0.181121608547965, 0.034180243273230375, 0.1569786705623644, 0.18920159930773023, -0.013489372692311515, 0.005686911197743703, 0.12575640058463555, 0.11870908751002907, 0.07989623065681742, -0.02682420572131359, 0.08067823034714659, -0.02715215740404685, 0.12625481614243708, -0.4431890752355364, -0.020645304336314285, -0.07069107672612354, 0.16709868737620212, -0.1252276021843667, 0.05175320966119539, 0.04947206464991981, -0.2702285673878493, 0.04322424354688914, -0.14202923510353857, 0.0014203565615999087, 0.20182523841112984, 0.1804569231337534, 0.03181828003460014, -0.30978670547459725, 0.018624485119064702, 0.17993669992103395, -0.24951571115106164, 0.16105173501338316, 0.016914372547180107, 0.03225181493084362, 0.19558924380034917, 0.14998766019077345, -0.029427266601665916, 0.2858409289291959, 0.15642949994060523, -0.2532441664865064, -0.124798743036403, -0.05017255485768589, 0.01697155537211969, 0.10741782357529557, 0.018662130660468557, -0.2302408340039101, -0.010785410549754813, 0.025785392729026423, 0.019772276053703016, -0.0073660994392938375, -0.04984543187240523, -0.040789410870889053, 0.0015100180552746329, 0.05293400148702513, 0.0935627902633849, 0.09488621120672618, 0.10369929128191697, 0.0019776726945166974, 0.03729395262710358, 0.023054211202779774, -0.005760538977598997], [0.05406757439103763, 0.011681903785577437, -0.2556675025057269, -0.04807101630610991, 0.10322892073951725, 0.046124962727019436, -0.06125953985212798, 0.13744369227725575, -0.1263117684402646, 0.20274519258320403, -0.03211814020554811, 0.225791372814793, 0.10268037901884491, -0.05053691448613796, 0.09808997373656952, -0.02343892761525933, -0.005063123470374146, 0.14969484561923854, -0.3326121204271291, -0.11224896905761435, -0.06241865076020807, 0.011391236165114418, -0.13244643131026732, 0.13287278858382018, -0.06739901632586145, 0.12386504176427278, -0.07915748498544936, 0.18569458993598886, 0.005490705528405026, -0.005561892220908736, 0.063087255008242, -0.0045171727878588865, -0.047375291021183735, 0.09729827681543071, -0.023428604700903615, 0.09486421511759137, 0.06425080637232586, 0.11271134291524242, 0.053238851390582105, -0.033849955935274026, 0.08672511916726242, 0.18383966353499887, -0.4363529643799524, -0.16470850021999967, 0.13476026583214873, 0.09251387348063435, -0.18863576683866431, 0.15346002934459263, -0.2789865288951696, -0.1950931711125752, -0.03540814885768531, -0.17691926299735541, 0.11054801752934518, -0.006496337648548075, -0.1375513714873711, -0.14889379453492518, 0.025751200885140442, 0.022217874642272963, -0.026774697037799083, 0.03365162905081654, 0.054576962955551395, -0.05612152642883242, -0.03676645269771588, -0.09688186542309188, 0.0674683546153761, -0.12251133030845011, 0.10766447257002855, 0.12390379040626841, -0.07125992251664841, 0.19483144499875266, -0.11332147318104199, 0.08552297664235328, 0.03759846661948602, -0.19229775729360282, 0.11121924812014782, -0.0032506171777091516, 0.07365456186373644, -0.023133887946434003, -0.15172538614384926, -0.2696758359551949, -0.0667530657661327, -0.19444947266789261, -0.18361433339871683, 0.05076143594998276, 0.016347418532661334, 0.07020303843512056, 0.07063376079846045, -0.3495015511691535, 0.05241063417689266, -0.004620180074204162, 0.031003257703305243, 0.040430272949485965, -0.2869804886115986, 0.17368390527408517, 0.08986357178828613, -0.05245884323645742, 0.13835842702054832, -0.03446954027667663, -0.09481703895234081, 0.04012844147829466], [-0.2686541363315969, 0.25327906463620375, -0.1473775145037911, 0.012830017315872532, 0.16187276508621443, 0.1949339349822008, -0.1519918474016095, -0.024500766576055464, 0.034961988391595096, 0.08728499846589204, -0.21595583154905643, 0.29195152457157497, -0.06538059804556758, 0.11321715827704916, 0.037077354865889325, 0.049872040490258875, 0.07116364249922372, -0.0867816140583351, -0.14690610428829906, -0.2540521427113362, -0.12101667765512981, 0.05542248165664031, -0.2989394964838343, 0.07788544619509492, -0.34118544381658833, 0.06690243266296735, 0.0802311333868319, 0.03165992030979133, -0.07517567753526132, -0.0510450239579652, -0.008604189503831242, -0.01989338119987919, -0.2225794253061268, 0.03766785431766997, 0.018254629657705843, 0.1344341752376964, 0.1066610144319451, 0.15433839838035115, 0.1592306440776673, 0.15699266815564553, 0.022486218181024767, 0.1299117244227202, -0.43189600968693903, -0.23827484155442544, 0.21340656354700685, -0.0782798807166376, 0.16276236183753431, 0.10116328020423576, -0.2760069824266363, -0.23272548758012063, -0.14482343187144614, -0.11633136496854375, 0.0335302787152683, 0.0359007640908936, 0.02777814264689913, -0.2317722466954237, 0.09825624892712145, 0.13897410687866985, 0.2215463222520643, -0.18212572355523093, -0.3069790842457272, 0.11295429097637835, 0.21328940808437158, -0.10085648447428966, -0.35433293961086537, 0.04919450137174298, 0.03621405463485471, 0.14239325233612707, 0.0844676818416842, 0.18352467641012693, 0.13539683173748476, -0.1970537589749987, 0.19137826884428671, 0.19250433774280135, -0.1781709118855122, 0.26774684424394946, 0.17652131457128406, -0.21485773553914533, -0.08215592076273877, -0.1327789617612314, 0.08391713810942207, 0.05913760176593508, 0.06212817837624867, 0.048443658224280844, -0.11038139959087401, -0.15025924777881441, -0.05415080656690015, -0.354292618722305, -0.16065200876698965, 0.0007854225995035492, -0.09255364302326408, 0.22447922117001515, -0.19348147412869457, 0.18654870172223403, -0.12905328938275545, -0.06837067310742602, 0.15725767941067242, 0.04481421027925483, -0.02136119848250704, 0.15000015290652105], [0.14570824872210997, -0.3291476584435077, -0.32415813707511115, 0.12502762382094368, 0.16169801181958127, 0.059248078614160975, 0.056067927607941576, 0.07091319379204464, -0.22851968372976134, 0.260772242837914, -0.06213127920214428, 0.25037019630042534, 0.01522310805890771, -0.02352290787883128, -0.16700522537260296, -0.0742193063433523, 0.10790382213369291, 0.14385123981545303, 0.06651587720731318, -0.030526337269396558, 0.17235877467399577, 0.047345250425441965, 0.12006215574012445, 0.017931511519612232, 0.050099597442724145, 0.010173659186689133, 0.06388462242154319, 0.061111589758270614, 0.11121119418257197, 0.03514633607847884, 0.03136101811879852, -0.29904009156102, 0.0195103700905134, 0.19884610802223054, -0.14525006519734288, -0.07913145101985221, -0.11425652135311463, 0.0481061482135052, -0.05541601824433068, 0.03914781733239402, 0.15378346013546684, 0.07563929195383434, 0.012781157368897473, 0.07134083713039278, -0.44909307977071633, -0.08670087797171663, 0.18061722778468114, -0.04799025052011177, -0.3348354713174401, -0.3401912083488716, -0.0006000654500329125, 0.1889824200426157, -0.1254045304818439, 0.10526535666678416, 0.06184911303939801, 0.2555060492856349, -0.10384908736485891, 0.15281030023082934, -0.07503873729700895, -0.06147649556115118, 0.04529495345086793, -0.022591557159790956, -0.07125294629334948, -0.1221931913390194, 0.18893116551085065, -0.13888413127129953, 0.02872880646443154, -0.1269599447545406, -0.24186392092380393, -0.38636559393394343, -0.0544683886292299, 0.045582930408938654, 0.019784450747633242, 0.039333604401957635, 0.030850512281635836, 0.0102178264262498, 0.0005017014097801712, 0.04323084985972832, -0.2652218928712158, -0.2826773218615473, -0.033275180323531654, -0.010151430774702949, 0.08327537021368077, 0.03495915092313659, 0.04326800991907449, -0.06423752013201349, -0.10166818678639879, 0.04499209502449281, 0.03547278696972789, -0.00750256075771049, -0.02599815734766571, 0.05287796915512697, 0.03586591550849812, 0.1409416641097439, 0.03308954995516827, -0.1068952186299924, 0.2566737168902158, -0.023092909600855378, 0.05958890046185108, -0.04231647755724196], [-0.03621222176486169, -0.40872800175213203, -0.051515296186868446, 0.1466946553070667, 0.059114102950329324, 0.14017379582737172, 0.09433207504156035, -0.1745263672894695, -0.004376882850985147, 0.05246700886560455, 0.24243844039035228, -0.018687182497376217, 0.007283649705498455, -0.16918892408719088, 0.16387606918230627, -0.04155226769465801, -0.115898565589212, -0.04796203205501796, -0.008369766557804774, -0.19272861653417678, -0.01634605479396166, -0.0024965701740051038, -0.12936214085364753, 0.14150348055591033, -0.1811661265467959, -0.08663813503503977, -0.00781215353676022, -0.024807676464509675, 0.05892033205044612, -0.36661569293701984, -0.022233634552900828, 0.0312488224850391, -0.051385499800213265, 0.16115361406420464, 0.03133739067900484, 0.18418507513431484, 0.10549575443655898, -0.1383055381765391, -0.017312455291458476, -0.05045911320624143, -0.09741638798657702, -0.03967024333086218, 0.09835365238287834, -0.18218006304464934, 0.07809413678814484, 0.07790384164614944, 0.07698723766222677, 0.04780691722053489, -0.5570294398758827, -0.1644106636471887, 0.07492718574622245, -0.18928891641803272, -0.027990192511451645, 0.11393543320172954, 0.07364345310751882, -0.23464798974814438, -0.10975836411378338, 0.003713626770351953, -0.03202110861311686, -0.032907198986760755, 0.2212346921152091, 0.08219874220782421, 0.003263111668507393, 0.17274789793944517, 0.181450618362854, -0.04821050715658201, 0.013640503962902268, 0.1303514909622031, 0.12455752803443901, -0.585501088873631, 0.0875915674174717, 0.09090548329279899, 0.001191814684305673, -0.13956057475758976, 0.056793171124557215, 0.02910505070126354, 0.10295054192482042, 0.20397950069830537, -0.12758135199740972, -0.07340955826378782, 0.0806407763148641, -0.042362937021025636, -0.03146437359209275, 0.17232961277783007, 0.09297840493313812, 0.017206262491633095, -0.04971107012070588, -0.06041462488325698, 0.07333396153681866, -0.19617992488629965, -0.13692452718854373, 0.13638206686822887, 0.18442442881583737, -0.050555282557700594, 0.0502530752319036, -0.06335648373528072, 0.1768322348954463, -0.1240052928621286, 0.1553745289441268, -0.09507075234150254], [0.01972614923290657, 0.10834917513745256, -0.010785289456494415, 0.19871958185355604, -0.2613640798429909, -0.02242014991564552, 0.22102834161110915, -0.20132929872818092, -0.19351363769666366, 0.35159827997341314, 0.33318465191087165, -0.09396301688215569, -0.16491979173418994, 0.025034624966414436, 0.06129977371070473, 0.1921971564921041, -0.09138145148675907, -0.04401763023542289, 0.15377183432853156, 0.2333069157100262, 0.025703011532195164, 0.15850460222197787, -0.2805985801158355, -0.06749350621950616, -0.005687328080796195, 0.2694305493766906, -0.14161261118901267, 0.03461800944539882, -0.05283100877352228, -0.07298548975872098, -0.12550402119400178, 0.03298814655088404, 0.2341655555869992, 0.23898098102763168, -0.062215526875581344, 0.017375248311385923, 0.09188127510523914, 0.2623972900957629, -0.2786404923971186, 0.09278031202893751, -0.09061299536922744, -0.13728647815879588, 0.16711415900346, 0.2405041908943678, -0.06677424603837785, -0.07654183290712432, 0.3143400600232826, -0.31236335437142143, -0.1953095131040927, -0.11086103810267134, 0.03125948248444691, 0.2273423669011581, -0.20903769244500633, -0.05885761563874615, -0.16170343375217328, 0.12390040365509163, -0.0564367447785827, -0.031384437220252095, 0.2999986863574412, 0.28011269305278946, -0.11444231486898536, 0.2595064568885376, 0.2712693563236777, 0.4116812603232461, -0.26299655678270734, -0.02007467915157094, -0.10094684369965826, -0.14564776232332396, 0.16997643309564334, -0.0584759558514973, 0.2367448738989099, 0.10509476635988088, -0.051863111439307816, -0.08642960882159277, -0.1268946370766647, 0.3061065571539796, 0.15260773380580764, 0.05066304303156751, -0.08117902928445186, -0.15486078524550909, 0.08624017312458174, -0.041294077937070024, 0.2942285950124682, 0.3001255304142822, -0.08709468897152171, -0.06320464741956038, -0.24405933582282535, 0.2719534537139402, -0.09202974506166321, 0.3081861021845799, -0.04123728312593906, 0.04907892307425947, 0.3240880218145954, -0.23382578485416433, 0.3043359584199894, 0.03119841265854961, 0.27281564157549, 0.10596579818966714, 0.09392618303077997, 0.1248730660485939], [-0.06157087477263444, -0.07365050736529608, 0.2935991363574838, -0.04866569320219504, -0.3921843229247432, -0.14730259216316763, 0.41804112922048997, -0.023998793678060622, -0.057649844908923456, 0.4084163282186271, 0.28951164352072023, -0.31607907302181554, -0.3307789680523181, -0.0745460403056412, 0.06246760499322717, 0.09606834447645127, -0.12208705134599605, 0.2013825804394908, 0.08514777215944395, -0.01191058352278381, 0.1635460384046263, 0.027689607557858546, -0.4414638150231542, -0.07197338341523608, 0.10893628055243007, 0.05199876530858069, -0.0324768860467882, 0.19263599933773945, -0.2860741279451659, -0.22217776309484846, -0.25848192519377394, 0.3663035940143011, 0.05148655949891646, 0.07054296697176794, -0.16203570777022905, -0.16026048858436928, 0.07431097270062957, -0.05236701562057972, 0.13191485692562446, 0.057314041410607364, -0.2791469885820124, 0.2506993398823845, 0.25736027740067785, 0.05489281971273734, -0.1278278549653177, 0.2042264031076758, 0.3913929640876637, -0.3697817702798993, 0.02047684750236984, -0.024188877124968304, 0.13675849751957314, 0.13319816868764112, 0.2240785916104981, 0.07487867117404144, -0.2499091258899276, 0.24248887413501294, -0.19567303407531253, 0.027351796690240338, 0.25781834057436037, -0.035705475873625964, -0.3244608014659597, -0.1499239171441396, 0.271070260628863, 0.06432187006173769, -0.3449922730878353, 0.011708181506325917, 0.03339001935333971, -0.22578804504769595, 0.0766059978339179, 0.415164668304693, 0.14440976525308902, 0.11605999413342354, -0.07207318422712433, 0.22772823322199684, -0.1747210491499923, 0.21330353741882574, -0.06761486512594023, -0.11353487760267388, -0.23808937783936496, 0.20309711077326056, -0.12484421572959031, -0.3081585196627031, -0.06637257106642848, 0.15553007996580487, -0.2713805532675152, -0.1445337762551581, -0.23991077307806363, 0.10828450787910837, 0.05253037719871797, -0.19756536590938964, 0.09028913690524155, 0.21380616557945065, 0.18568603891221655, -0.17017936225202052, 0.355120882024199, 0.42624109423916334, 0.2935250915404395, 0.20150889860210427, 0.31266312447572503, 0.04315928822932018], [0.36944922828440613, 0.5462423124525948, -0.17214110455683107, 0.022559774194948774, 0.025286065520206968, 0.015343357014170484, 0.11571809918012729, 0.21338532661683698, 0.15747993328291401, -0.047861979531642555, 0.21232463960557704, 0.006901400507760673, -0.044054028458169026, -0.28699380543767283, -0.05530272246437102, -0.2601363179522872, 0.10070793163595253, 0.34236276681088235, 0.013001350356857557, 0.01936242766284261, -0.10270367434874733, 0.09205182601106009, 0.07926077850440899, -0.15797802453370235, 0.4587818510984657, 0.33607981962390615, -0.24125652424844649, -0.20908101857646916, -0.06648358901440632, 0.059648776208684993, 0.01965483275727995, -0.295518124493636, -0.20927953945833283, -0.13780779477755567, 0.12794252131045353, 0.10979634200451399, 0.18801664788626266, -0.034264547031704444, -0.15726089766160922, -0.12592508550855624, 0.11626038638499868, -0.12015681968099458, -0.3218205940291176, 0.23821529575628309, 0.07257012441593932, -0.20059918245230327, 0.22247035093349415, 0.10484801905498783, -0.17674489753713515, -0.07075829819292168, -0.009849704907710267, -0.3364482366772759, -0.071589685016964, 0.05189954236690464, -0.04761474722300312, 0.16012240981089568, -0.09505092560452177, 0.40870549395485595, -0.016447695460681956, 0.06903721867285656, -0.07273410450159645, 0.024291840651683747, -0.43380107735933576, 0.43202354313058255, -0.22799018921145608, 0.14310330527969714, -0.015280939257016837, 0.027824102556227633, 0.03027283372412989, 0.24079513161501132, -0.04166076718237446, -0.09761044277782596, 0.10181508060070463, 0.11250355318223157, 0.299367033865133, -0.23922422426390655, 0.008750741855920955, 0.21066480387303807, 0.07327170512418837, -0.09244840162291562, 0.1299179684786443, 0.034359187729734224, 0.1927241277662162, 0.1438371336658907, 0.12893302409948257, 0.02024980077911487, 0.17057614397162518, 0.2805995182722205, 0.07520048532099774, 0.21379748085049374, 0.16881370008231267, -0.011772272616741377, -0.2117539426051776, -0.2792661591682221, -0.18562839787708893, 0.03376313725544316, 0.3634066067999791, 0.4483954638279995, 0.16703223925824348, 0.005612798047439112], [-0.2365717881494914, 0.12514776472697794, -0.04663596426551005, -0.11428958051269388, 0.15643581277329846, -0.17535040427671994, -0.04918592928897698, 0.08155947231464536, 0.08221209313309583, -0.17658580420575942, -0.009182719332935595, -0.0021116594793360146, -0.00707002124726385, -0.04582385088740378, 0.06832373900653292, 0.027950250290634637, 0.13455532192077568, 0.055681805312202015, -0.25327465023639073, -0.2356558413594761, 0.07496282232643553, 0.20822104318782025, -0.20497828653581657, 0.10257987029948454, 0.16218076059090802, 0.04692052354988688, -0.08533876657824387, -0.017643139571388928, -0.0702203326736261, 0.05675777849650464, 0.03233319549789566, 0.2526351702078385, 0.03188998558516598, 0.12651658995004264, -0.034553343757037766, 0.11095936737574591, 0.022340546430879373, -0.04052460428857427, 0.11339552384685397, 0.06705941947517972, 0.022792116904804764, -0.1390404524459708, -0.35297309390122167, 0.11702701284513517, -0.02674153546155481, -0.20210703181555492, -0.10740732475723894, 0.16109098490775756, -0.1679729041795242, -0.05721419643125056, -0.06015504127274645, 0.1018826822945981, 0.18995725326000243, 0.13610696566716715, -0.05235290932721219, -0.11479235079156591, -0.12402142514518222, 0.24355316708303548, 0.044254518456898546, -0.05501913387564703, -0.5212278398862933, 0.01636178518310361, 0.07885931631274756, 0.17211141109568426, 0.009727418480751093, 0.012118795780630175, 0.03834757341424653, -0.025330766645772246, 0.016215055866518294, 0.1117241587887251, -0.15615161854632179, -0.23233337379744856, -0.004992757878166802, 0.09430618361205931, 0.08520037525447768, 0.06530667300893643, -0.003270580023975903, -0.041761467237299815, 0.0805707307785585, -0.2169297380948279, 0.0011601984343694118, -0.41763113263063395, 0.07631099718614325, 0.09047813583707075, 0.19864666178270046, 0.022510608897587454, 0.021911501685301826, -0.4313311254218132, -0.11961732939893953, 0.06390840583299177, -0.05957226869932891, 0.04306600956979991, -0.08303107167968433, 0.07369591522284992, -0.0389958667252024, -0.02572193485980006, 0.24472203382130076, 0.1178501909414743, 0.13407793563791637, 0.1629653589198515], [-0.11479290095125493, 0.23224023881276948, 0.19583723226486263, -0.1405346956803635, -0.14268576138621725, -0.045789724746064714, -0.0060054614128292215, -0.18295042865145525, 0.20308780965659948, 0.0873482875769137, 0.1651319647989105, 0.22180972088778034, -0.42954966732388516, 0.1812393300594292, -0.029538879979289327, -0.3541934832637136, -0.004904952676813238, -0.207533728146787, -0.035466725673636984, 0.09147605385742781, 0.0669992335535468, 0.21225252059603253, 0.17326797552851614, -0.11558728139641235, 0.18580858487645677, 0.27652901842789523, 0.07169376196433358, -0.19246183437408215, 0.37213959189874013, 0.07559276891750061, 0.27513232227282947, -0.09537087128169534, -0.27076877678637784, 0.09088790741987346, 0.06189123555092697, 0.23947544305932586, -0.21913252573302827, 0.15515455252197785, 0.10440190212727879, 0.09385530898573413, 0.03803976407550459, 0.004215318265519497, -0.42276553443091663, 0.07321952086223307, -0.3059409082054584, 0.009912736948492831, 0.10293678244903091, -0.3165619728810899, 0.08054505890624467, -0.16204914495900125, -0.08199582370326185, 0.06714114420426788, -0.17389540830963052, -0.03570519720201892, -0.2420918902454071, 0.1167191977400473, 0.028152809718187153, 0.1465544017999888, -0.1880528273388678, -0.20050783244240974, -0.35123569856754217, 0.007398218787134374, -0.11325555781181354, 0.0070852838557311565, -0.3636382406827828, -0.06781361724276523, -0.21951055876001846, 0.12344042272666833, -0.052252139282763316, 0.027011306533328935, -0.34560249472069404, -0.019698509196701703, -0.015776362231812974, -0.26419736851224457, 0.008591844039791652, 0.026525683984764112, 0.015195817833068555, 0.13156199015999956, -0.32338806997659, -0.027294858645280133, -0.048222037612997724, 0.08631989426204953, -0.13372390629819386, 0.057613296862549485, 0.3026378398282757, 0.06234443043604604, 0.3470461122524134, 0.20301847084911623, -0.17497093484147536, -0.13689686100652276, -0.0974127770672027, 0.016046218744501878, -0.08273877166933906, -0.44205112953714537, 0.22970912841784805, -0.39354159379878123, 0.05486652018897962, 0.22151409225140625, -0.14555009123134316, -0.18664678469237053], [-0.2207303000994651, -0.031482844923217145, -0.0952452303212965, -0.1448987340427656, -0.078087562378246, -0.2636562122786929, -0.0022835466851631003, 0.15763377112828394, 0.20667953660527397, -0.3680412738913352, 0.2465357963520137, 0.13503448019481254, -0.21535742971260785, 0.15933712271952147, 0.00923359390070992, 0.077560898657334, -0.31067413571551616, -0.5003463826133498, -0.1441866605131247, -0.13975386931180922, 0.020975450376335122, 0.2190134880872333, 0.1698208626677623, 0.17064358229226448, 0.22049708512813054, 0.0961690334487387, 0.2130182542220384, -0.12255926576026441, 0.47179762339586095, -0.3156090338053329, -0.14658979259430507, 0.0953272732049433, -0.3716433025309494, 0.3381019290783492, 0.16773128297619347, 0.245482387731347, -0.3071888344339383, 0.16383219734686477, 0.13356997834755768, 0.21795266052157466, -0.2082443083336053, -0.13605828242427248, 0.3399528106951321, -0.2637276741233449, 0.2568628874416221, 0.10827492407062124, -0.06264714442883204, 0.04866254577592371, -0.35850165261795586, 0.16320722059513934, 0.026248125957551726, -0.028819468328159566, 0.17470437573317174, 0.21784365492601454, 0.12013125996982114, -0.19416465938438035, 0.0833604168197055, 0.20009768284100796, 0.23599200249714936, -0.0020724913222850408, 0.2142886465608231, 0.07981590244205737, 0.1881842548531952, -0.032638222319740055, -0.3157169658060152, 0.04645566692551988, 0.03781733068489108, 0.24151962833998442, -0.07555239883388715, -0.20542408317289082, 0.15815884087234172, -0.04703028736330334, -0.15376709170083344, -0.29413782393171456, 0.02028662912740294, 0.3073896036585102, 0.29897392002247297, -0.2679541713627114, -0.054635070658245764, -0.09780032640682822, -0.0008135748344411029, -0.213018593634626, -0.13213054681227118, 0.04721031203001256, 0.3521799462164847, 0.18890791836804963, 0.14510663143679725, -0.333419999134675, -0.03903620866746113, 0.2530763817021161, -0.3054955335044117, 0.07461487505087269, -0.27395735165722385, -0.04410581264431351, 0.15292826751283253, 0.031332185123227885, 0.2723212639074992, -0.0568651914079493, -0.16118680358995394, -0.0410825142245003], [-0.1807357915246217, 0.11960384767891184, -0.12197238876779787, -0.04546838817664672, 0.04179841714704031, 0.156448914183226, -0.16237299865798166, -0.1242667823852792, -0.04686571541392901, 0.18031877286495443, -0.08173371395287944, -0.09474583167361718, -0.06402219531297754, 0.09215919166302486, 0.0029182892360841823, 0.013233586036909877, 0.3591262761742613, -0.001988470956568025, 0.033662625732480626, 0.019304887762178265, 0.11030225533522128, 0.09335658853872053, -0.17068598356473366, 0.1722288513528022, -0.24987022060598596, 0.27216629585894114, -0.13162995472164002, 0.3501316932924091, 0.23807362329567883, -0.18826110133670163, 0.3454980042143409, -0.12198494966635326, -0.1421768660580147, -0.2514456997660174, -0.07538741151002676, 0.09514896346605727, 0.2116888171254563, -0.14234505662185218, 0.5121926540032283, -0.1525074379989428, 0.007622169740316655, -0.10999790504381898, -0.27034219601276505, -0.13360987069276756, 0.29747555246364327, 0.03177112989367519, 0.2219145380182568, 0.3623843856803739, -0.1625459521117971, -0.13674727821644886, -0.2843145013159704, 0.21548050739792687, 0.25280241706837897, 0.3508115102739267, 0.11406564577866937, -0.028860667213110543, 0.09977984862041325, 0.12383792341915634, 0.11259155111105643, 0.292376331775856, -0.2095973828960784, 0.27753931837955753, 0.14740404295671128, 0.2774443765213012, -0.14889571840786014, 0.22365809479652857, -0.11630599387434722, 0.19686501439415355, 0.262872741817016, -0.2959896882260976, 0.43106805403813403, 0.029995823277242498, -0.18625019103732454, -0.0034638332309387013, -0.01822810060342309, -0.2723901687014981, -0.1485546666994605, -0.04555007113367502, -0.2226744808646957, -0.0656465478336001, 0.11378450660494958, -0.15455105439628825, -0.07062005637921989, 0.16479108103368226, -0.1321595303028658, 0.1573059186467278, -0.13756517756123518, -0.11081393224993799, 0.1395549350303116, 0.1668270321873034, 0.009766712221885661, 0.2663238154904986, 0.008205173400351342, 0.36116858665675294, -0.03248748836739088, -0.2171918972785611, 0.10696438806577283, -0.07377457320089702, 0.12577241248722318, -0.2649875437815272], [-0.009249347169488265, -0.5489123477070007, -0.33600583954597424, 0.10920770030532018, 0.1776185776325116, 0.04593744025027072, 0.03803855064771398, 0.1297695804003688, -0.3887281139665919, -0.047529280661541766, -0.13795385357111303, 0.3000857347804001, 0.1233313305368745, 0.08571586292080499, -0.030452788756905647, 0.00891698803387211, 0.07464833542050218, 0.17032418875309846, -0.14281510571353045, -0.1074519002606193, 0.05492141909498007, -0.028310808196411352, -0.4369731909310077, 0.05384213066952943, 0.032690427954152175, 0.073684603490213, -0.45667655254412254, 0.14408440332681832, 0.20964341745426962, -0.30075465710052923, 0.13792091413630206, -0.24086440557381944, -0.004050302438268217, 0.15514885221648309, -0.047536791529090586, 0.04444165116599333, -0.05527614273286704, 0.07691075905406504, 0.016956632447270956, 0.02438379929810615, 0.07218342800906727, -0.18125049653928843, 0.059609799960578524, -0.22174286779132152, 0.06157328672976657, -0.13755532626612002, 0.1937610592222302, 0.058444423856966556, -0.40282510557172785, -0.35871458369211034, -0.07354549236674644, 0.09009480635070047, -0.11370513942243428, -0.08601639458123723, 0.14359241523558502, -0.1688087074954421, 0.03162051322310806, 0.11977632671991217, -0.04473119770938954, 0.15794805233949788, 0.20265673364032544, -0.0057494292292376865, -0.015581020509247825, -0.09792422298984815, 0.11050894377351424, 0.03533705040849726, -0.052723632744330125, -0.047893433568606474, 0.07216854193677434, -0.49278538141259354, -0.10033077130878373, 0.029425569110406245, 0.06971013702472338, -0.11719369918021559, 0.10329649628768328, -0.04138124700747439, 0.12181721214108628, 0.021672070976674857, -0.1779766660077314, -0.19636480547262464, 0.08088481098537674, -0.30475733513961034, -0.15140833008293128, -0.03794510499248024, 0.10209217506494093, -0.03052926578828406, 0.09355263191780055, -0.4560550920331323, 0.04341307068654183, 0.09284591019259207, -0.0074780052609890076, 0.012675848208580563, -0.06980626205618501, 0.21476161487004228, 0.13658901774194762, -0.13413267391452283, 0.08014388174948754, 0.03605925351825547, 0.1470406074960102, 0.04084829173036728], [-0.07722576083096759, -0.23832303854868186, 0.008213524857383084, 0.00839100289335626, 0.3679878479182448, 0.03476662258762104, 0.3922928382212137, -0.06250046700445853, 0.1176102249623372, 0.19826364882396563, -0.17073387699969902, 0.215694139816377, 0.17746961943692025, -0.13643217062484791, -0.16294779766423628, -0.16106138457468544, -0.15833043735150157, 0.3468043672910045, -0.16703319984921924, -0.08989517619590369, 0.13456386728523687, 0.19377149189901932, 0.12041937958406525, -0.20727581723907193, -0.16045884188802115, -0.0036136735947493656, -0.05300154157994976, -0.27678095158502247, 0.12557174011268238, -0.10664308449543262, -0.35927041213701416, -0.23584872906787413, 0.08043037445937141, 0.12405674799774005, -0.09514687054242266, 0.11702797416320519, -0.10875102580354631, 0.356430287753786, -0.11538304087847877, 0.5677865648189465, 0.08566130631066102, 0.30385299534155774, -0.06065064964259941, -0.1833177962248314, 0.07229573102103479, -0.2733925850004775, -0.18141265697214726, 0.43648944479536445, -0.10911956941429263, -0.19523938918261113, 0.20403383299149952, -0.24801715829100274, 0.2830923642189527, 0.17347719439370493, 0.09400630528195465, -0.0351886990171488, -0.1732275050127208, 0.011129817271708175, -0.3017630451989757, -0.08295460646146632, 0.0027885918456046605, -0.019539807497973335, -0.28813668205932463, -0.03448024179532263, -0.24693723311345028, 0.28748109002537897, 0.23340403845683505, -0.1135362396705484, 0.2600718285032595, -0.21184733197019504, -0.042136349824651705, 0.1607413861169516, 0.27021213600660887, 0.0853038083207831, 0.054426498198836076, 0.006854314037862152, 0.4220165329971675, 0.22489283910625474, -0.26574557978978947, 0.19069410497147818, 0.2574389650983696, -0.02477434205711948, 0.18377195350548264, 0.31177343533186547, -0.2844798164853887, -0.12187834981161154, 0.3733041190051699, -0.12368576417313518, 0.14443775795103242, -0.09147268637922544, 0.20463036903421783, -0.10415646925097446, -0.16281395891417622, -0.3341421846171526, -0.20123490206165923, -0.06667802750644047, -0.40478503320047343, 0.15197649516675485, -0.17541191084817806, 0.10913368872744415], [1.199808235659027e-105, -4.583521414275867e-100, 5.18859161164878e-94, -5.254421413329895e-90, 3.72205348261997e-103, -1.3907472824770645e-103, 1.763049003337636e-98, 8.975327640409257e-105, 9.564425771218793e-96, 3.373421420403855e-107, 3.034240612353299e-102, 1.1448691629143516e-97, 2.150241954497372e-105, -2.095047065531731e-102, -4.315694454340083e-90, -1.5244782832570715e-89, -1.662198694406725e-104, -2.1008681887032843e-95, -8.737227451852615e-104, 1.7867927063187526e-99, -2.1698946696483608e-94, -1.3648897475157044e-104, 4.09067496886824e-104, 1.1884956947461566e-92, -5.905556751895979e-92, -1.2787000462748215e-101, -8.025701729847217e-92, -3.38028873171396e-105, -1.3692342405796414e-106, 4.118572545959373e-101, 3.7362480165327858e-90, 8.544397321593057e-100, -5.2846169613265527e-107, 2.191659177757078e-103, -3.295433163594935e-105, 2.0492055177287645e-98, -7.237531428759934e-95, -8.209937956719796e-103, -1.391648039287467e-103, -1.1344096282537736e-99, -3.7620464974992435e-97, -6.729152017092524e-94, 3.704117235836466e-105, 9.166583567053277e-97, -1.2569811106528829e-95, 2.2997713265318213e-90, -3.584890318042427e-105, 1.2720478586849446e-98, 1.0060939420186407e-100, 3.494894195758002e-103, -2.115256609855251e-104, -8.527072839391883e-103, -8.576753728790616e-105, -1.619611789024886e-95, 4.3222812009844263e-98, 7.941473569263449e-94, 6.299247774941215e-93, 2.06997814315257e-105, 4.5370771161522166e-105, 1.182400277662467e-97, -1.1367987972342968e-94, 3.7800643425949538e-90, 5.59509335438487e-106, 4.463976648273131e-98, 1.1779467631493103e-99, 4.191454240677369e-96, 2.356864110212933e-104, -1.4193583487095773e-105, -4.233099595431825e-105, -2.85166394920388e-90, -3.6921073515300614e-105, 1.6566891749736136e-100, 6.335490354410929e-91, -9.3366838230044e-102, -7.553331136720291e-94, -1.0840717350581439e-104, 1.055498717967926e-92, -6.9135741660621e-89, 3.472823495004322e-91, 3.4150394434397613e-93, 1.4833002351269582e-93, -4.907768315837252e-105, -2.3682039256859993e-105, -3.065739014221831e-99, -2.0676012222785014e-101, 2.1212644627101584e-90, 3.243700813549855e-107, 6.828682884285026e-105, -4.787583499195103e-102, 2.4579646880174756e-104, -7.861791039743992e-102, -2.0087297041722397e-98, -4.352173274717848e-98, -8.102603638029986e-92, 4.5526193144674144e-98, 2.5326697514711794e-105, -4.021027785865237e-99, -3.0581525881526614e-89, -6.331794356242745e-101, 4.243654428419003e-94], [0.19683574611778687, -0.12375432613562354, -0.05874305251564258, -0.050655946980417706, 0.29709505846461765, -0.004163996481917632, -0.030380538931312755, 0.22669849900610659, -0.05955073343520298, -0.16320562805462535, -0.06027600475210773, 0.22916008982189146, 0.004828137224901938, 0.17957984264497454, 0.20899748920167205, -0.06668244356243355, 0.0944744662577573, 0.2695630858403534, -0.12431890486520696, -0.14120088117227553, 0.34374789248829174, 0.017460902549474102, -0.09513183555524608, -0.05462531623999347, 0.2284938394359255, -0.1533958336326212, 0.3730610027379191, 0.03628582219548885, -0.06852031964500128, 0.24003727030952798, 0.18426996279925084, 0.3283170740351772, 0.1935343236897072, 0.12055126999401813, -0.06596249889982905, 0.012297752587902458, 0.4262084042585003, -0.05843613014693626, 0.16397546010254643, 0.4173316188637866, 0.1540575414304301, 0.11475270765923859, 0.009685445869146176, -0.05198078346073803, -0.02834279885962929, 0.23060227068790415, -0.1399531391569047, -0.31021513566490794, -0.10594245028962625, -0.0025944493891454133, 0.11551211368219637, -0.03533960483750381, 0.2857035625473856, 0.06659973574907477, -0.1073488042581726, -0.060168099451094026, 0.5195569887107274, -0.12067713742416965, -0.13150244336748312, 0.0015703822597848405, -0.06119039682316025, -0.17901031792699268, 